{"layers":[{"out_depth":1,"out_sx":32,"out_sy":32,"layer_type":"input"},{"sx":5,"sy":5,"stride":1,"in_depth":1,"out_depth":8,"out_sx":32,"out_sy":32,"layer_type":"conv","l1_decay_mul":0,"l2_decay_mul":1,"pad":2,"filters":[{"sx":5,"sy":5,"depth":1,"w":{"0":0.023354558342081503,"1":0.00962719411837946,"2":-0.027213638253984422,"3":-0.045508852797674235,"4":-0.05826985563211351,"5":0.018761268550900493,"6":-0.008339507560839692,"7":-0.03545791998519289,"8":-0.05767641088652506,"9":-0.06953897062960322,"10":0.014640588406779535,"11":-0.009057600723924418,"12":-0.03959911421253061,"13":-0.0749738512802932,"14":-0.06485443819061058,"15":0.011761460684504668,"16":-0.004068147314982206,"17":-0.0280483059388368,"18":-0.0566939846509783,"19":-0.04992867795253069,"20":0.016795761505836303,"21":0.00230273851456927,"22":-0.03281208857051664,"23":-0.06290317359237999,"24":-0.0488410771706708}},{"sx":5,"sy":5,"depth":1,"w":{"0":-0.0822938563180303,"1":-0.1295365007179702,"2":-0.18478847712062987,"3":-0.20205770707163165,"4":-0.2105141788173008,"5":-0.12719844979130124,"6":-0.2331365755642587,"7":-0.27082394296891116,"8":-0.26568402477524034,"9":-0.2539444709509075,"10":-0.13089991816599963,"11":-0.21653646894000678,"12":-0.2513198355695147,"13":-0.2519563833524022,"14":-0.23003456289531568,"15":-0.14531719850377242,"16":-0.23411586786850003,"17":-0.22880943208743412,"18":-0.24027139501081426,"19":-0.19871416354383703,"20":-0.15247606087680743,"21":-0.23518731510554955,"22":-0.24383361996549216,"23":-0.2579375260706977,"24":-0.19831842355822155}},{"sx":5,"sy":5,"depth":1,"w":{"0":-1.154372296e-314,"1":-1.0980763063e-314,"2":-8.78130512e-315,"3":-8.20053586e-315,"4":-8.65292548e-315,"5":-1.2606200343e-314,"6":-1.2323754707e-314,"7":-1.0604424827e-314,"8":-8.87856584e-315,"9":-1.205474993e-314,"10":-1.618957973e-314,"11":-1.614535951e-314,"12":-1.462857952e-314,"13":-1.141658244e-314,"14":-9.453565357e-315,"15":-1.2069553293e-314,"16":-1.269447913e-314,"17":-9.29919411e-315,"18":-8.15255236e-315,"19":-8.972223927e-315,"20":-9.242476353e-315,"21":-1.0207695573e-314,"22":-7.68012238e-315,"23":-6.970748986e-315,"24":-9.117786294e-315}},{"sx":5,"sy":5,"depth":1,"w":{"0":0.10371629466496278,"1":0.03949622734099656,"2":-0.11321960537652047,"3":-0.1700377648011747,"4":-0.19850341297029228,"5":0.08199372488310928,"6":-0.02254715973878051,"7":-0.13992076260597697,"8":-0.22160281143196606,"9":-0.23423594096522518,"10":0.06275831767597699,"11":-0.01990005329987269,"12":-0.13044061993974065,"13":-0.23128311385814324,"14":-0.22414012139268658,"15":0.04351698670415963,"16":-0.027209586951515957,"17":-0.12416136276841508,"18":-0.19984291458709694,"19":-0.18644333298116111,"20":0.051031293603200155,"21":-0.010146408484894728,"22":-0.13073505187361473,"23":-0.22589372015930348,"24":-0.1902433326332054}},{"sx":5,"sy":5,"depth":1,"w":{"0":-0.07802787089988607,"1":-0.12232404936954273,"2":-0.208036575337627,"3":-0.2284986491458805,"4":-0.23107710517741664,"5":-0.13048668543001715,"6":-0.22817971905404588,"7":-0.2985960968164578,"8":-0.29751651448446015,"9":-0.28814750444548015,"10":-0.1354134848468899,"11":-0.21609748003769874,"12":-0.27185212410968446,"13":-0.2714394857614196,"14":-0.2555989072147247,"15":-0.15428596655955232,"16":-0.24136813906811327,"17":-0.2505189405881392,"18":-0.2654178740135242,"19":-0.22855866481154616,"20":-0.1556894522602135,"21":-0.23441552012133046,"22":-0.26941657352483017,"23":-0.2985186102131365,"24":-0.22626814123718222}},{"sx":5,"sy":5,"depth":1,"w":{"0":-0.08597374394529504,"1":-0.1286471489130043,"2":-0.17736204365980457,"3":-0.19571039924233963,"4":-0.19979957388943495,"5":-0.12499616185727941,"6":-0.23246469210276924,"7":-0.2603532106263438,"8":-0.25500423434335706,"9":-0.2448351465142489,"10":-0.13067483929515558,"11":-0.21443395078258418,"12":-0.24711799523143826,"13":-0.24478874314114193,"14":-0.2194039344335912,"15":-0.14431217573119515,"16":-0.2291826403303881,"17":-0.22333040036556762,"18":-0.23571354427465974,"19":-0.19090358210884967,"20":-0.15142353502920747,"21":-0.23068987982227498,"22":-0.2387106444269756,"23":-0.24997366681660405,"24":-0.1908530605426789}},{"sx":5,"sy":5,"depth":1,"w":{"0":-0.0377530569994725,"1":0.16664242204991225,"2":0.2847351248195495,"3":0.24388320377332012,"4":0.15075757275186957,"5":0.018201331770416277,"6":0.22915209762123595,"7":0.34051652753599426,"8":0.3212596468623944,"9":0.21148542126210754,"10":0.06426381014564932,"11":0.22937447802771466,"12":0.39916101184926067,"13":0.3187457286038774,"14":0.22277016959557655,"15":0.05302510577231851,"16":0.21698217245744875,"17":0.3835779049916068,"18":0.29012707405919297,"19":0.2180466060508421,"20":0.09068306413448816,"21":0.22206054128911393,"22":0.3497852761787117,"23":0.25698954697258836,"24":0.21624275154777625}},{"sx":5,"sy":5,"depth":1,"w":{"0":-6.171855071384231e-249,"1":-6.358453680695768e-249,"2":-2.4399970377985326e-249,"3":-1.6475326228043175e-249,"4":-6.470863479745909e-249,"5":-2.4665546077393994e-249,"6":-2.617110412881722e-249,"7":-1.4324906073657403e-250,"8":1.4994177987669343e-249,"9":-4.488555268985073e-249,"10":-3.9315414104283574e-249,"11":-1.9067760797504298e-249,"12":7.63996105079963e-250,"13":7.853801424724879e-249,"14":-9.806700066588588e-250,"15":-2.401930547897656e-249,"16":7.07408991929115e-251,"17":5.535051010859936e-249,"18":9.475126067352022e-249,"19":-1.1441254072536805e-249,"20":-1.59937571860651e-249,"21":5.0651712227394034e-250,"22":5.047449562945084e-249,"23":6.806816459435093e-249,"24":1.9404907075706456e-250}}],"biases":{"sx":1,"sy":1,"depth":8,"w":{"0":0.7667241142146618,"1":5.208367682405194,"2":-0.0007070261943113232,"3":2.8993036884509067,"4":5.698170443880111,"5":5.079126478211399,"6":0.13054441072311682,"7":-0.272174690688474}}},{"out_depth":8,"out_sx":32,"out_sy":32,"layer_type":"relu"},{"sx":2,"sy":2,"stride":2,"in_depth":8,"out_depth":8,"out_sx":16,"out_sy":16,"layer_type":"pool","pad":0},{"sx":5,"sy":5,"stride":1,"in_depth":8,"out_depth":16,"out_sx":16,"out_sy":16,"layer_type":"conv","l1_decay_mul":0,"l2_decay_mul":1,"pad":2,"filters":[{"sx":5,"sy":5,"depth":8,"w":{"0":-2.02102216437578e-309,"1":2.018456550166775e-309,"2":-7.33871425e-316,"3":-3.37223469931587e-309,"4":1.065627018527054e-309,"5":1.282415705108703e-309,"6":-4.582911671400365e-309,"7":1.06046436091727e-309,"8":-2.84294229293478e-309,"9":2.911853139411564e-309,"10":-9.19631733e-316,"11":-4.07528420934953e-309,"12":1.614084914365753e-309,"13":1.83698395073836e-309,"14":-5.036575789920435e-309,"15":-1.59386453813856e-310,"16":-4.1965060593154e-309,"17":2.64954082308557e-309,"18":-1.80470631e-315,"19":-4.60917419728318e-309,"20":1.2082210184225e-309,"21":1.492027574893636e-309,"22":-4.903310149644015e-309,"23":5.568380654638e-311,"24":-3.07536444827886e-309,"25":3.152796713326724e-309,"26":-1.43834528e-315,"27":-3.969273642641943e-309,"28":1.9723548372007e-309,"29":2.102916950966644e-309,"30":-5.560605377449346e-309,"31":-2.90790776666483e-310,"32":-2.760156317987763e-309,"33":2.71078915886803e-309,"34":-1.754157936e-315,"35":-3.579914503472643e-309,"36":1.47634169259057e-309,"37":1.594127309143405e-309,"38":-4.056255454409308e-309,"39":9.2283395095197e-310,"40":-1.60722745942682e-309,"41":1.22150789096976e-309,"42":-1.439246897e-315,"43":-2.985402979556794e-309,"44":1.04287173957356e-309,"45":1.0135555195399e-309,"46":-5.031046637555917e-309,"47":-9.350302330137e-310,"48":-2.04173028769456e-309,"49":1.92597352054559e-309,"50":-1.069378796e-315,"51":-2.82089453793044e-309,"52":1.476528344852155e-309,"53":1.435876279022877e-309,"54":-5.40176237704711e-309,"55":-3.175245725172715e-309,"56":-2.914074250042405e-309,"57":2.062337722767704e-309,"58":-1.80636631e-315,"59":-2.877247188466634e-309,"60":1.397844889959177e-309,"61":1.40802879364787e-309,"62":-6.374751516204255e-309,"63":-2.660039774636133e-309,"64":-3.12044667035044e-309,"65":3.209299592611976e-309,"66":-2.038202467e-315,"67":-2.859274668546494e-309,"68":2.46606562629466e-309,"69":2.503484775658453e-309,"70":-7.41382521091431e-309,"71":-3.42338641558693e-309,"72":-3.91917880110316e-309,"73":2.62511216631767e-309,"74":-1.936407765e-315,"75":-3.38473988885058e-309,"76":1.671731455446255e-309,"77":1.713394447492804e-309,"78":-5.249385151116066e-309,"79":-2.131963630694027e-309,"80":1.75819158048413e-310,"81":-9.7518539323433e-310,"82":-1.77018042e-315,"83":-2.44409867276805e-310,"84":-6.63747199037115e-310,"85":-8.35078485344126e-310,"86":-6.84858281308967e-310,"87":-2.878641941673776e-309,"88":-1.581719032777407e-309,"89":-1.435603086839443e-309,"90":-1.154568876e-315,"91":-4.5277901925321e-310,"92":-1.06197119650447e-309,"93":-1.252593508019576e-309,"94":-1.29461574860276e-309,"95":-2.50177999581598e-309,"96":-1.168416677088936e-309,"97":-1.45333567020878e-309,"98":-1.400424977e-315,"99":-4.33786310485427e-310,"100":-7.92803426527965e-310,"101":-1.05852106328051e-309,"102":-8.9982184892149e-310,"103":-1.81698044314961e-309,"104":-1.256584133394214e-309,"105":-5.42571617974317e-310,"106":-2.090127803e-315,"107":-2.777603919718e-310,"108":1.99035335027033e-310,"109":-1.81917199526944e-310,"110":-1.187683998636523e-309,"111":-2.819454910748743e-309,"112":-2.21623272415115e-309,"113":-7.25066437343587e-310,"114":-1.32214829e-315,"115":-1.000513723628835e-309,"116":-2.98856460094247e-310,"117":-6.40549111678715e-310,"118":6.19737645107567e-310,"119":-2.31403474116293e-309,"120":-1.315412465200735e-309,"121":-5.3945676087647e-310,"122":6.7376782e-316,"123":-1.039202321776928e-309,"124":-6.7207568735823e-310,"125":-5.3719843294642e-310,"126":-2.23528543106323e-310,"127":-1.83277223442118e-309,"128":-1.709975422800725e-309,"129":-2.753953512713333e-309,"130":7.38776133e-316,"131":-3.26229346875033e-310,"132":-3.13672142679235e-309,"133":-3.03859058320801e-309,"134":3.118495827452233e-309,"135":3.64566578791264e-310,"136":-1.52746663366377e-310,"137":-4.663325179575247e-309,"138":-2.42650737e-316,"139":1.6370859096812e-310,"140":-4.76236661549105e-309,"141":-4.614080103896606e-309,"142":4.379263260763436e-309,"143":8.8473901738143e-310,"144":4.8796149895125e-310,"145":-4.24263295798087e-309,"146":-8.5052385e-316,"147":3.8214134363146e-310,"148":-4.16654486028971e-309,"149":-3.997435596000424e-309,"150":3.896560524821957e-309,"151":2.2112346488126e-310,"152":-1.20560254834636e-310,"153":-2.501058519529484e-309,"154":-2.78647925e-316,"155":-8.2716724592034e-310,"156":-2.42068701346497e-309,"157":-2.354397542256704e-309,"158":1.862676418382506e-309,"159":-1.759425151755544e-309,"160":-2.59268128287769e-309,"161":-1.94447634116832e-309,"162":4.8903948e-316,"163":-1.569641556804417e-309,"164":-1.38036767068698e-309,"165":-1.575533646327686e-309,"166":-6.5588319511893e-310,"167":-2.3876093776105e-310,"168":-2.91426357085603e-309,"169":-2.670611944695787e-309,"170":2.3492975e-317,"171":-1.824280068317833e-309,"172":-2.348571611304806e-309,"173":-2.41689732949315e-309,"174":2.48333132822743e-309,"175":3.299601303098743e-309,"176":-1.439783959688814e-309,"177":-3.25169483671355e-309,"178":-1.020414504e-315,"179":-1.505761749939006e-309,"180":-3.12252771373768e-309,"181":-3.263540355910773e-309,"182":2.152029076404775e-309,"183":4.224511530414386e-309,"184":2.22877808771755e-310,"185":-2.766127085035594e-309,"186":-1.19982106e-315,"187":-1.077208239796997e-309,"188":-2.637746869335424e-309,"189":-2.77793659404942e-309,"190":4.77202869029657e-310,"191":2.95925879653025e-309,"192":3.2317729187127e-311,"193":-2.322522821876104e-309,"194":-4.0328377e-316,"195":-1.043298276411426e-309,"196":-1.74783920859435e-309,"197":-1.951622208559125e-309,"198":-3.79492770683224e-310,"199":-1.504468571845383e-309}},{"sx":5,"sy":5,"depth":8,"w":{"0":-1.0335196463690728e-307,"1":7.88482443113234e-308,"2":-3.70974164e-315,"3":-2.3627370610672763e-308,"4":1.0168548979884366e-307,"5":7.258942754637795e-308,"6":-5.964755525863025e-308,"7":-1.5472657632546326e-307,"8":-2.153164938060721e-308,"9":3.787558262747061e-308,"10":-2.40641005e-315,"11":1.99478394000095e-308,"12":5.060016462934695e-308,"13":3.411108809532292e-308,"14":-2.998812053186186e-307,"15":-4.044656746745351e-307,"16":-8.548680752580639e-308,"17":-1.0454911432075952e-307,"18":2.382818774e-315,"19":1.951845986148053e-308,"20":-7.369401315386898e-308,"21":-8.450502847688799e-308,"22":-4.478514656332091e-308,"23":-3.649459715334861e-307,"24":-5.645105271278066e-308,"25":-1.5272273401135543e-307,"26":5.587517197e-315,"27":-1.8808483072075064e-308,"28":-1.7782323646006444e-307,"29":-1.8356574442776074e-307,"30":1.202714368357817e-307,"31":2.1873631654001507e-307,"32":1.804357361055113e-307,"33":3.1086090942441674e-308,"34":5.08338659e-315,"35":1.0372967588817923e-307,"36":6.933601970796503e-308,"37":7.015523927674265e-308,"38":-1.3136333161324494e-307,"39":-1.8218319385067688e-307,"40":-1.3080201518325798e-307,"41":2.3386601024756385e-308,"42":-3.020907045e-315,"43":-4.800598516771052e-308,"44":3.8273760359531675e-308,"45":1.833588310675126e-308,"46":-3.655924694407795e-308,"47":-1.3273481301409274e-307,"48":-5.227933988493837e-308,"49":6.45660522606291e-309,"50":-2.54553443e-315,"51":-3.224312523536235e-309,"52":1.679557290115554e-308,"53":7.88264575344401e-309,"54":-2.8977919401360858e-307,"55":-3.0459870540589186e-307,"56":-2.0086247408680802e-307,"57":-9.776018852341328e-308,"58":1.74122544e-315,"59":-2.562825892012342e-308,"60":-8.274061606150077e-308,"61":-8.297835534973886e-308,"62":5.396381401802251e-308,"63":-3.235117710029649e-307,"64":-2.701158065514276e-308,"65":-1.764661493840143e-307,"66":5.817615845e-315,"67":-9.25412509796868e-308,"68":-2.052606332024271e-307,"69":-2.1239821915067455e-307,"70":1.5422564581214078e-307,"71":2.6544568695959416e-307,"72":2.193869865450156e-307,"73":1.169084064837659e-307,"74":4.5751443e-315,"75":2.4267107766291e-310,"76":1.6518956079502988e-307,"77":1.6753563206425554e-307,"78":-3.243967027896572e-307,"79":-4.511179436444826e-307,"80":-1.0352529229530277e-307,"81":-9.987180608737345e-308,"82":-1.87314019e-315,"83":5.724554315909004e-308,"84":-8.242504229181963e-308,"85":-1.0650591813792122e-307,"86":1.0163551605636275e-307,"87":-1.500258236360603e-307,"88":-5.01587799336185e-309,"89":-9.434574960696522e-308,"90":-1.535814863e-315,"91":6.501245671143385e-308,"92":-7.496880341385389e-308,"93":-8.190513063368138e-308,"94":-1.3606113318023207e-307,"95":-3.2123629783898626e-307,"96":-1.6577619173233468e-307,"97":-1.5414794844486137e-307,"98":1.88709985e-315,"99":-2.5731797916153573e-308,"100":-1.378757898647408e-307,"101":-1.310409571357647e-307,"102":2.3284344195304327e-308,"103":-2.7421832227351496e-307,"104":6.55940018886934e-309,"105":-1.8081583279851292e-307,"106":5.34702107e-315,"107":-9.695717857450534e-308,"108":-1.8286954190782274e-307,"109":-1.9027225033323583e-307,"110":2.5252961464068655e-307,"111":2.7922901326649363e-307,"112":2.697125939095316e-307,"113":7.507409830185651e-308,"114":3.94582322e-315,"115":7.671901388310034e-308,"116":1.5004846627114872e-307,"117":1.511708194751695e-307,"118":-3.1821864831284497e-307,"119":-6.360625798294736e-307,"120":-8.108258719781266e-308,"121":-1.7034278723126315e-307,"122":-7.56658444e-316,"123":5.1502982671648e-308,"124":-1.7931757184442996e-307,"125":-1.8739543298211413e-307,"126":2.028610714108265e-307,"127":3.0556371045190726e-308,"128":1.810956815957124e-308,"129":-1.2476486800940244e-307,"130":-2.9893876e-316,"131":5.930833009054648e-308,"132":-1.0715636657298042e-307,"133":-1.0835909646923295e-307,"134":-1.0576251946620157e-307,"135":-1.9691180189882412e-307,"136":-1.4377047982564127e-307,"137":-1.0922187178596194e-307,"138":1.3732135e-315,"139":-4.88398748721673e-308,"140":-1.1343454152402508e-307,"141":-1.1006646793654822e-307,"142":-7.647124078561278e-308,"143":-2.896141233344206e-307,"144":-1.8466633133692195e-308,"145":-1.153350500483768e-307,"146":4.82814625e-315,"147":-1.3830962537431278e-307,"148":-1.246538250685314e-307,"149":-1.3133603996857006e-307,"150":1.4262020602466784e-307,"151":3.4481436214303487e-307,"152":2.4613994169882324e-307,"153":1.065495552711348e-307,"154":3.504400096e-315,"155":3.8963550824579083e-308,"156":1.3510026637059911e-307,"157":1.4748985923806771e-307,"158":-4.9588964123844685e-307,"159":-6.038822044102962e-307,"160":-5.754746957139313e-308,"161":-2.6683995442347516e-307,"162":-9.48024377e-316,"163":-2.9639606759092697e-308,"164":-2.3909392560874584e-307,"165":-2.71613040929542e-307,"166":2.904108117519603e-307,"167":2.4719636108208178e-307,"168":7.530209703618622e-308,"169":-1.9498496805722154e-307,"170":-8.0178382e-316,"171":1.1379866658447933e-308,"172":-1.9972256543586486e-307,"173":-1.9580400443375044e-307,"174":-1.1261643258379523e-307,"175":-7.87372126524782e-308,"176":-5.7937646478121e-308,"177":-9.136471723921682e-308,"178":7.441379e-317,"179":-2.853954004392852e-308,"180":-8.09279503542336e-308,"181":-9.178765760141805e-308,"182":-1.2299691846891416e-307,"183":-3.603415277619456e-307,"184":1.9980453651018655e-308,"185":-3.416062308255991e-308,"186":4.04374847e-315,"187":-1.5443704526381896e-308,"188":-4.4184972824144896e-308,"189":-5.186809117522457e-308,"190":2.198792661858388e-307,"191":3.634801592513182e-307,"192":3.972291454287985e-307,"193":9.688989537714311e-308,"194":2.49579892e-315,"195":2.0167955158804208e-307,"196":1.2102343637927689e-307,"197":1.1378117713754295e-307,"198":-2.2383199439460755e-307,"199":-4.3913376393991114e-307}},{"sx":5,"sy":5,"depth":8,"w":{"0":-2.2838150279455854e-266,"1":-1.3980236465897938e-266,"2":-1.086017e-317,"3":-1.77144501121763e-266,"4":-1.353360597362962e-266,"5":-1.4014765745963502e-266,"6":-7.718525472742713e-266,"7":-6.0358137771328176e-266,"8":-2.55124705257201e-266,"9":-1.6350120159799584e-266,"10":-1.2065893e-317,"11":-2.0825159442465712e-266,"12":-1.5727164078628773e-266,"13":-1.638425203944007e-266,"14":-7.829730621936202e-266,"15":-3.852925241571971e-266,"16":-2.942822313213278e-266,"17":-2.2948917928551244e-266,"18":-1.304739e-317,"19":-2.6925150927658543e-266,"20":-2.2019129355405434e-266,"21":-2.2956206809941518e-266,"22":-5.0989803706993614e-266,"23":1.6790882759138594e-266,"24":-3.151573968585867e-266,"25":-3.3639959272122266e-266,"26":-8.70561e-318,"27":-3.1800497296001265e-266,"28":-3.320058214494113e-266,"29":-3.3567974482397476e-266,"30":-3.458031580470516e-266,"31":-1.6188927109756197e-268,"32":-3.1823433805931744e-266,"33":-4.256478905766273e-266,"34":-9.059163e-318,"35":-3.460711738267183e-266,"36":-4.32382198946464e-266,"37":-4.243786420392441e-266,"38":-3.0862792342695346e-266,"39":-2.9093229322713023e-266,"40":-2.37128978121465e-266,"41":-1.5112207784462697e-266,"42":-9.84116e-318,"43":-1.8899100645237802e-266,"44":-1.4754586855093593e-266,"45":-1.5161558095899175e-266,"46":-7.645189106289046e-266,"47":-5.845194361260612e-266,"48":-2.7235428126229197e-266,"49":-1.8656750258584912e-266,"50":-1.049633e-317,"51":-2.326627852354095e-266,"52":-1.8068627106301453e-266,"53":-1.8705911491284664e-266,"54":-7.835015766715272e-266,"55":-2.0416745167278214e-266,"56":-3.050849000508923e-266,"57":-2.4849834571187648e-266,"58":-1.103885e-317,"59":-2.871332182220654e-266,"60":-2.406068922258623e-266,"61":-2.489411045818522e-266,"62":1.3378545908965646e-266,"63":2.0248827514191223e-266,"64":-3.2498286581094815e-266,"65":-3.290659236863536e-266,"66":-6.449375e-318,"67":-3.323724231733118e-266,"68":-3.264921280689717e-266,"69":-3.2901387356865854e-266,"70":-2.8068765869980244e-266,"71":3.053030242629007e-266,"72":-3.3667707176419634e-266,"73":-4.174012340281858e-266,"74":-7.097134e-318,"75":-3.7137781663797056e-266,"76":-4.2636322275598056e-266,"77":-4.179599132912908e-266,"78":-2.8456387024737488e-266,"79":-2.5907422738534912e-266,"80":-2.4592894711793297e-266,"81":-1.65456894762367e-266,"82":-1.192012e-317,"83":-1.9980433505679277e-266,"84":-1.619446959586051e-266,"85":-1.6578827755493948e-266,"86":-7.360397045592582e-266,"87":-4.844696797891955e-266,"88":-2.8253319395762128e-266,"89":-2.057721064326972e-266,"90":-1.1958795e-317,"91":-2.4694092943794402e-266,"92":-1.9973735950650217e-266,"93":-2.0609205653731024e-266,"94":-7.425590716691152e-266,"95":9.425181481383657e-268,"96":-3.0194620331447367e-266,"97":-2.4677039189142845e-266,"98":-1.2766207e-317,"99":-2.8327303870697348e-266,"100":-2.3928062466173267e-266,"101":-2.4716751373178475e-266,"102":1.721710684735483e-266,"103":2.2530234426380957e-266,"104":-3.110450777853031e-266,"105":-3.040777694529585e-266,"106":-5.793834e-318,"107":-3.123996493341782e-266,"108":-3.017677767836166e-266,"109":-3.0399833972056916e-266,"110":3.252845933521722e-266,"111":3.109824193252101e-266,"112":-3.367654214393143e-266,"113":-4.230132392001374e-266,"114":-6.884014e-318,"115":-3.684057270023506e-266,"116":-4.292418764714216e-266,"117":-4.226364969823353e-266,"118":-2.7754755617012657e-266,"119":2.9289895812508403e-266,"120":-2.593398346898722e-266,"121":-1.9647732783492842e-266,"122":-9.36393e-318,"123":-2.2175043651515064e-266,"124":-1.9391557042386444e-266,"125":-1.967774655205446e-266,"126":-7.041773995954202e-266,"127":-3.186089661166948e-268,"128":-2.905250914107971e-266,"129":-2.408039952249276e-266,"130":-9.84684e-318,"131":-2.6573924357041487e-266,"132":-2.364869063862025e-266,"133":-2.410848802613645e-266,"134":-7.03981278289355e-266,"135":4.4235505917227776e-267,"136":-3.033888315795196e-266,"137":-2.645722529140226e-266,"138":-9.54857e-318,"139":-2.8951811861234088e-266,"140":-2.587640647437813e-266,"141":-2.647364075668588e-266,"142":1.8249347559088133e-266,"143":2.3675129429285457e-266,"144":-3.0760409916837608e-266,"145":-3.022768932928757e-266,"146":-5.950764e-318,"147":-3.0714205249679855e-266,"148":-3.011191918794212e-266,"149":-3.023754568067662e-266,"150":3.501690628244255e-266,"151":3.1623442541912694e-266,"152":-3.422501626463065e-266,"153":-4.2766998546687466e-266,"154":-6.95068e-318,"155":-3.761160002556841e-266,"156":-4.3484957209288086e-266,"157":-4.2736441123928746e-266,"158":-1.753511414552626e-266,"159":3.5228414006567414e-266,"160":-2.71796691219916e-266,"161":-2.5069414443691174e-266,"162":-8.97546e-318,"163":-2.483509013540171e-266,"164":-2.496847686025204e-266,"165":-2.505243248085159e-266,"166":-6.684945605369752e-266,"167":-4.8361255294553276e-266,"168":-3.0339044129952076e-266,"169":-3.0947464724635764e-266,"170":-1.025239e-317,"171":-2.973657316477658e-266,"172":-3.074637086913282e-266,"173":-3.091804925653735e-266,"174":-5.7480498292548625e-266,"175":-4.277221986454761e-266,"176":-3.0728757008195015e-266,"177":-3.1224411132227905e-266,"178":-1.051893e-317,"179":-3.0492463903159996e-266,"180":-3.0981391509609025e-266,"181":-3.12068747581962e-266,"182":-3.136513116972195e-266,"183":-2.8902350781285657e-266,"184":-3.0756298704249483e-266,"185":-3.3696706027250364e-266,"186":-6.81916e-318,"187":-3.1638577206101216e-266,"188":-3.380278801974101e-266,"189":-3.365580490642296e-266,"190":-2.642165859634014e-266,"191":1.7514010873635138e-266,"192":-3.448861351227275e-266,"193":-4.5552113249499235e-266,"194":-7.433934e-318,"195":-3.8747168494525334e-266,"196":-4.636850370505718e-266,"197":-4.550274200108156e-266,"198":-2.656377366848096e-266,"199":-1.8944460418987115e-266}},{"sx":5,"sy":5,"depth":8,"w":{"0":-1.148401e-317,"1":-3.76872385e-316,"2":3.927329e-317,"3":3.26380423e-316,"4":3.74989e-316,"5":5.083516e-318,"6":-1.51077146e-315,"7":-2.005401814e-315,"8":-9.7577338e-316,"9":-4.06618284e-316,"10":-4.168983e-317,"11":-2.882577e-318,"12":-2.4949232e-316,"13":-4.69679816e-316,"14":-1.71156482e-315,"15":-2.6872489e-316,"16":-7.1848871e-316,"17":1.4673029e-316,"18":-7.7116617e-317,"19":-6.31417733e-316,"20":5.24387215e-316,"21":4.49203774e-316,"22":-2.7567006e-315,"23":-1.651806126e-315,"24":-2.21310853e-315,"25":1.37318936e-316,"26":-1.4004832e-316,"27":-8.92337363e-316,"28":-1.0446616e-316,"29":1.6466435e-316,"30":-1.017621196e-315,"31":-2.42086085e-316,"32":-1.712979467e-315,"33":-3.537159e-316,"34":-1.229294e-316,"35":-1.05584817e-315,"36":-7.5378821e-316,"37":-7.61518474e-316,"38":-7.6012216e-316,"39":2.0319626e-317,"40":4.0581643e-317,"41":-2.8827021e-316,"42":2.070491e-317,"43":7.32329135e-316,"44":2.64408114e-316,"45":-3.8693976e-317,"46":-3.78657494e-316,"47":-1.539627197e-315,"48":-3.9461924e-316,"49":-8.32551477e-316,"50":-4.610429e-317,"51":3.40817515e-316,"52":-4.79642007e-316,"53":-7.4837089e-316,"54":-1.70313257e-316,"55":4.25140855e-316,"56":3.64087207e-316,"57":-1.93347003e-316,"58":-8.562506e-317,"59":2.66254837e-316,"60":3.21628573e-316,"61":8.5861514e-317,"62":-2.003545807e-315,"63":-2.201141275e-315,"64":-1.565503396e-315,"65":-1.792481e-317,"66":-1.67594987e-316,"67":-6.46497e-316,"68":-8.476654e-317,"69":-3.1373495e-317,"70":-2.8004336e-316,"71":1.35028383e-316,"72":-1.188839467e-315,"73":-1.6694279e-316,"74":-1.2952776e-316,"75":-8.91614866e-316,"76":-5.06787574e-316,"77":-3.58299143e-316,"78":-4.2050894e-316,"79":4.44935313e-316,"80":-3.0712976e-316,"81":-7.80946785e-316,"82":-1.234107e-317,"83":1.4608286e-316,"84":-3.3878749e-316,"85":-4.7768482e-316,"86":4.871694e-317,"87":-1.08912087e-315,"88":1.04879905e-316,"89":-1.237418867e-315,"90":-5.1476087e-317,"91":-1.3506317e-317,"92":-1.147676087e-315,"93":-1.385366e-315,"94":-3.81898525e-316,"95":9.0332187e-316,"96":7.33876207e-316,"97":-4.6099699e-316,"98":-1.0429787e-316,"99":1.5484763e-317,"100":4.5848424e-316,"101":1.7190043e-316,"102":-3.093917853e-315,"103":-2.906892247e-315,"104":-1.43073207e-315,"105":1.3388314e-317,"106":-1.55973684e-316,"107":-5.6991131e-316,"108":4.55788483e-316,"109":3.8233692e-316,"110":-2.38671522e-315,"111":-5.4675802e-316,"112":-1.37583228e-315,"113":3.1846482e-316,"114":-1.1854493e-316,"115":-1.493499045e-315,"116":-7.675629e-317,"117":1.211621e-316,"118":-2.82000621e-315,"119":-5.65232596e-316,"120":-3.90337186e-316,"121":-5.0131978e-316,"122":-3.768644e-318,"123":-3.31531023e-316,"124":-1.7102064e-316,"125":-2.58768206e-316,"126":-2.36241856e-316,"127":-1.055050636e-315,"128":2.44922644e-316,"129":-6.3878951e-316,"130":5.34696e-318,"131":-2.95790734e-316,"132":-7.86237823e-316,"133":-7.94508986e-316,"134":-1.566804e-317,"135":1.64159924e-315,"136":1.214989507e-315,"137":-5.4126373e-316,"138":-4.8854342e-317,"139":6.1894786e-316,"140":3.1861207e-316,"141":-7.946538e-317,"142":-2.811960523e-315,"143":-3.04521989e-315,"144":-7.06888227e-316,"145":-1.356976756e-315,"146":-6.6643655e-317,"147":4.3547649e-316,"148":-6.2880866e-316,"149":-1.009296916e-315,"150":1.3687685e-316,"151":-1.16825556e-315,"152":-6.75088803e-316,"153":-1.729411814e-315,"154":-4.4250456e-317,"155":1.5981634e-316,"156":-1.022890643e-315,"157":-1.76202395e-315,"158":1.9195038e-316,"159":-1.276988086e-315,"160":-6.16008493e-316,"161":-8.91194273e-316,"162":1.9328026e-317,"163":-5.12846534e-316,"164":2.6257799e-316,"165":-1.30189094e-316,"166":-8.674708e-317,"167":-1.222702213e-315,"168":-7.144673e-318,"169":-1.472812724e-315,"170":1.0653295e-317,"171":-2.79872047e-316,"172":-6.6393744e-316,"173":-1.087887864e-315,"174":8.48971314e-316,"175":1.377598433e-315,"176":1.43662889e-315,"177":-8.78496435e-316,"178":-3.199964e-317,"179":9.9679635e-316,"180":2.3965035e-317,"181":-1.79141514e-316,"182":-1.58082965e-315,"183":-2.46885404e-315,"184":-8.60383845e-316,"185":-1.0550459e-315,"186":-4.1536647e-317,"187":5.10538654e-316,"188":-4.73242207e-316,"189":-6.18812543e-316,"190":2.76464185e-315,"191":6.87807634e-316,"192":1.48721156e-316,"193":-1.91729257e-315,"194":-2.5215747e-317,"195":7.813235e-316,"196":-1.759917833e-315,"197":-2.061577103e-315,"198":2.72522127e-315,"199":2.79025935e-316}},{"sx":5,"sy":5,"depth":8,"w":{"0":-1.1566e-320,"1":2.465e-321,"2":-8.77e-321,"3":-1.719e-320,"4":-2.465e-321,"5":-2.465e-321,"6":-3.9026e-320,"7":-2.2564e-320,"8":-1.542e-320,"9":2.465e-321,"10":-1.085e-320,"11":-2.0924e-320,"12":6.41e-321,"13":2.465e-321,"14":-3.2416e-320,"15":-1.1527e-320,"16":-1.9906e-320,"17":-2.465e-321,"18":-6.606e-321,"19":-2.902e-320,"20":-1.0025e-320,"21":-7.27e-321,"22":-3.5597e-320,"23":2.465e-321,"24":-1.8024e-320,"25":5.52e-321,"26":-9.73e-321,"27":-3.2875e-320,"28":-9.763e-321,"29":-2.465e-321,"30":-5.3947e-320,"31":-2.7277e-320,"32":-1.327e-320,"33":2.984e-321,"34":-8.523e-321,"35":-2.424e-320,"36":-1.544e-320,"37":-4.83e-321,"38":-4.395e-320,"39":-3.08e-320,"40":-1.816e-320,"41":-2.444e-320,"42":-9.916e-321,"43":5.79e-321,"44":-1.1344e-320,"45":-1.8893e-320,"46":-2.465e-321,"47":-4.435e-320,"48":-2.614e-320,"49":-3.812e-320,"50":-1.0756e-320,"51":6.556e-321,"52":-1.2767e-320,"53":-2.53e-320,"54":1.698e-320,"55":-3.539e-320,"56":-2.1823e-320,"57":-2.9767e-320,"58":-7.31e-321,"59":9.74e-321,"60":-2.407e-320,"61":-3.0657e-320,"62":2.5375e-320,"63":-1.6566e-320,"64":-2.4595e-320,"65":-2.4387e-320,"66":-9.936e-321,"67":2.465e-321,"68":-2.216e-320,"69":-2.446e-320,"70":9.54e-321,"71":-5.2307e-320,"72":-1.476e-320,"73":-2.922e-320,"74":-9.55e-321,"75":-3.686e-321,"76":-2.959e-320,"77":-3.068e-320,"78":-6.12e-321,"79":-3.3834e-320,"80":-1.6146e-320,"81":-7.455e-321,"82":-7.03e-321,"83":-2.241e-320,"84":-1.3493e-320,"85":-1.307e-320,"86":-1.634e-320,"87":-2.7144e-320,"88":-2.8374e-320,"89":2.475e-321,"90":-7.154e-321,"91":-2.575e-320,"92":-1.6265e-320,"93":-8.315e-321,"94":-2.465e-321,"95":-2.465e-321,"96":-1.056e-320,"97":2.465e-321,"98":-5.03e-321,"99":-2.4995e-320,"100":-1.6576e-320,"101":-1.3256e-320,"102":5.296e-321,"103":7.663e-321,"104":-1.7114e-320,"105":-5.67e-321,"106":-8.26e-321,"107":-2.813e-320,"108":-2.567e-320,"109":-1.753e-320,"110":-2.1803e-320,"111":-1.9684e-320,"112":-1.117e-320,"113":-2.0514e-320,"114":-8.83e-321,"115":-3.1245e-320,"116":-3.3107e-320,"117":-3.1867e-320,"118":-1.9387e-320,"119":-2.281e-320,"120":-5.28e-321,"121":-1.11e-320,"122":-2.984e-321,"123":-1.9723e-320,"124":-2.465e-321,"125":-5.454e-321,"126":-3.983e-320,"127":-2.6166e-320,"128":-1.72e-320,"129":-1.712e-320,"130":-2.465e-321,"131":-2.0005e-320,"132":-3.873e-321,"133":-6.74e-321,"134":-2.754e-320,"135":-6.423e-321,"136":-1.265e-320,"137":-2.212e-320,"138":-2.465e-321,"139":-2.6477e-320,"140":-1.2826e-320,"141":-2.024e-320,"142":-3.1694e-320,"143":-2.465e-321,"144":-1.833e-320,"145":-2.6097e-320,"146":-2.465e-321,"147":-2.5993e-320,"148":-1.8443e-320,"149":-2.2095e-320,"150":-3.509e-320,"151":-1.94e-320,"152":-8.86e-321,"153":-2.3374e-320,"154":-2.747e-321,"155":-2.7895e-320,"156":-1.699e-320,"157":-1.947e-320,"158":-3.006e-320,"159":-2.757e-320,"160":-4.98e-321,"161":-1.2273e-320,"162":-2.465e-321,"163":-2.465e-321,"164":-1.4027e-320,"165":-1.215e-320,"166":-2.4575e-320,"167":-3.1096e-320,"168":-1.364e-320,"169":-8.567e-321,"170":-2.465e-321,"171":-6.586e-321,"172":-1.6546e-320,"173":-7.535e-321,"174":6.126e-321,"175":-1.3686e-320,"176":-1.8335e-320,"177":-1.0054e-320,"178":-2.465e-321,"179":-7.554e-321,"180":-1.3715e-320,"181":-1.0173e-320,"182":-2.465e-321,"183":-1.0973e-320,"184":-2.5005e-320,"185":-1.3715e-320,"186":-2.465e-321,"187":-1.246e-320,"188":-1.581e-320,"189":-1.1843e-320,"190":-6.655e-321,"191":-2.497e-320,"192":-1.271e-320,"193":-1.1467e-320,"194":-2.465e-321,"195":-7.124e-321,"196":-1.428e-320,"197":-7.99e-321,"198":-1.227e-320,"199":-2.764e-320}},{"sx":5,"sy":5,"depth":8,"w":{"0":-1.4908380838745137e-295,"1":1.1784809644795128e-295,"2":-9.41615e-318,"3":-6.186786758390465e-297,"4":1.269447392282707e-295,"5":1.1457381542600732e-295,"6":-3.588036958759009e-295,"7":-4.9760227307504755e-295,"8":-1.704093339048225e-295,"9":4.357325422083027e-296,"10":-9.16434e-318,"11":-7.68261421248036e-296,"12":5.049062255261789e-296,"13":4.359488053263706e-296,"14":-1.6910648138676646e-295,"15":-2.0895678312268806e-295,"16":-1.2871593413973274e-295,"17":-2.11810279993763e-296,"18":-7.43267e-318,"19":-9.490219803061863e-296,"20":-1.548776167742207e-296,"21":-2.2571927154640553e-296,"22":-1.9405766827581274e-295,"23":-1.959667272420824e-295,"24":-1.523251448301439e-296,"25":-6.74148200359995e-296,"26":-9.803547e-318,"27":-8.67690464915084e-296,"28":-6.344345580314675e-296,"29":-6.498216745873249e-296,"30":-2.4074873695860066e-295,"31":-3.6081386493277834e-295,"32":-1.2689815025209633e-295,"33":-1.4474642792624289e-295,"34":-1.0738853e-317,"35":-1.2987726299691503e-295,"36":-1.4373707822770317e-295,"37":-1.4371215423672627e-295,"38":-5.966384944642334e-296,"39":-8.086632184793886e-296,"40":-9.966600374661674e-296,"41":9.723544682788124e-296,"42":-9.59596e-318,"43":3.3592858300167006e-296,"44":1.0823925521160176e-295,"45":9.291803355378681e-296,"46":-2.880932234967108e-295,"47":-5.003156953892811e-295,"48":-1.3795730119201229e-295,"49":4.18710856665936e-296,"50":-9.58125e-318,"51":-4.3690505192413304e-296,"52":4.990968184516193e-296,"53":3.946243895721199e-296,"54":-2.838624599700772e-295,"55":-2.3881508554596018e-295,"56":-1.4656814129692493e-295,"57":-1.7871053287200148e-296,"58":-7.51134e-318,"59":-7.824747907710607e-296,"60":-1.2081165634967146e-296,"61":-2.2163494796002672e-296,"62":-2.2872948454704097e-295,"63":-2.0083898801771426e-295,"64":-1.1634731089397593e-295,"65":-6.506209261293029e-296,"66":-9.02194e-318,"67":-9.082764120626897e-296,"68":-6.162980929613807e-296,"69":-6.657582282707508e-296,"70":-2.2094826829226107e-295,"71":-3.250042059767968e-295,"72":-1.5537077499053768e-295,"73":-1.438967917391895e-295,"74":-1.0303383e-317,"75":-1.3166088190392057e-295,"76":-1.4310542880814443e-295,"77":-1.4497454098325563e-295,"78":-1.0260063367720529e-295,"79":-8.772493776358867e-296,"80":-7.008131096572284e-296,"81":5.21220875890474e-296,"82":-1.0198854e-317,"83":4.741071525073095e-296,"84":6.098422584506415e-296,"85":4.7422806537360746e-296,"86":-2.3964538923995973e-295,"87":-4.313127662526059e-295,"88":-1.0016780396035583e-295,"89":-9.550025881249882e-297,"90":-1.0228404e-317,"91":-1.5002638827250772e-296,"92":-3.926910126268511e-297,"93":-1.1486193464959563e-296,"94":-1.0659336952158864e-295,"95":-2.281982946103412e-295,"96":-1.16078159287511e-295,"97":-8.67901543897359e-296,"98":-7.481863e-318,"99":-5.401867806007812e-296,"100":-8.427845754948547e-296,"101":-9.167757793325227e-296,"102":-1.0393648045531994e-295,"103":-2.1233385565330087e-295,"104":-1.0255640161238212e-295,"105":-1.3338826879688942e-295,"106":-8.964327e-318,"107":-7.038415731568841e-296,"108":-1.3237631699295728e-295,"109":-1.3366342678096199e-295,"110":-1.5214871963376002e-295,"111":-7.70132236706944e-296,"112":-1.3404864956200335e-295,"113":-2.0451397438753333e-295,"114":-1.0045743e-317,"115":-1.1248515940439001e-295,"116":-2.0569487786853713e-295,"117":-2.0366862015167083e-295,"118":-7.337433247877539e-296,"119":-1.026284390683624e-295,"120":-7.856039973642819e-296,"121":1.5525719304383073e-295,"122":-7.50475e-318,"123":4.65215919717755e-296,"124":1.655879257813829e-295,"125":1.467807259619331e-295,"126":-2.276952936547419e-295,"127":-1.9142798004208116e-295,"128":-1.0723384860231425e-295,"129":8.915817819599645e-296,"130":-7.729346e-318,"131":-5.554276223119642e-297,"132":9.600726918318447e-296,"133":8.37796628281414e-296,"134":-1.0685827184332673e-295,"135":-1.926264257700767e-295,"136":-1.3717318478274806e-295,"137":1.1525625916386676e-296,"138":-4.868246e-318,"139":-4.7713502428600194e-296,"140":1.4929383353519748e-296,"141":1.2685076485113089e-297,"142":-7.470823500582137e-296,"143":-1.7258248451334844e-295,"144":-1.1701168499491193e-295,"145":-2.7856467583267465e-296,"146":-5.40915e-318,"147":-6.668253171356753e-296,"148":-2.5715475697145497e-296,"149":-3.307946718050288e-296,"150":-1.407308122422551e-295,"151":6.384837720660719e-297,"152":-1.5101233335077887e-295,"153":-1.0037261938417635e-295,"154":-5.950275e-318,"155":-1.2019380067839542e-295,"156":-1.0051698020478477e-295,"157":-1.0190287958507249e-295,"158":-4.777284298746775e-296,"159":-3.251286945724271e-296,"160":-1.1383219608100465e-295,"161":1.4846254565314306e-295,"162":-7.68e-318,"163":1.8546438975848192e-296,"164":1.5949119750091515e-295,"165":1.414223854246791e-295,"166":-3.4473545988860032e-295,"167":-2.88545387585876e-295,"168":-1.3195203770307038e-295,"169":6.296392924564013e-296,"170":-7.816593e-318,"171":-3.084080350787759e-296,"172":7.060897992596726e-296,"173":5.810113469692683e-296,"174":-4.100266397506635e-295,"175":-2.787326129303579e-295,"176":-1.6530954023378096e-295,"177":-1.152573380669911e-296,"178":-4.943734e-318,"179":-7.12716175308845e-296,"180":-6.91069975087644e-297,"181":-1.8972744860439223e-296,"182":-3.4458229688430436e-295,"183":-2.5730642582111923e-295,"184":-1.4840754621772098e-295,"185":-3.743558268092111e-296,"186":-4.89109e-318,"187":-9.519849003904911e-296,"188":-3.607630673036566e-296,"189":-4.458132569939801e-296,"190":-2.03870931803581e-295,"191":-2.6623268189486494e-295,"192":-1.964384292581933e-295,"193":-1.1755790078369058e-295,"194":-4.73233e-318,"195":-1.4851676723521718e-295,"196":-1.1706887818201022e-295,"197":-1.1905272286823642e-295,"198":-1.5216757755294064e-295,"199":-1.2177478704928453e-295}},{"sx":5,"sy":5,"depth":8,"w":{"0":-9.444200370955024e-276,"1":-7.9645127038041e-276,"2":2.2446126e-315,"3":-7.778474639495371e-276,"4":-6.157957413825414e-276,"5":-7.386546655952105e-276,"6":-6.240466292649846e-275,"7":-5.263321360516845e-275,"8":-8.89116565514936e-276,"9":-1.0002483408477424e-275,"10":-5.6126508e-316,"11":-9.163413758167462e-276,"12":-8.00853407302989e-276,"13":-9.397608311466034e-276,"14":-6.265626318689398e-275,"15":-5.3256747230678195e-275,"16":-5.5665928230723316e-276,"17":3.058398998882459e-276,"18":-1.025174086e-315,"19":-2.7772711037463564e-276,"20":5.489835401673967e-276,"21":3.5686971203503936e-276,"22":-5.82483673345668e-275,"23":-4.6413142466032864e-275,"24":-1.0400640600788651e-275,"25":-1.2011663955050358e-275,"26":-1.45763865e-315,"27":-1.086424182266241e-275,"28":-1.0723339146981631e-275,"29":-1.1485361522530222e-275,"30":-5.988706779194834e-275,"31":-5.040248535056809e-275,"32":-4.910545491789108e-276,"33":2.7587771154319846e-276,"34":-1.91671368e-315,"35":-3.446212484562425e-276,"36":4.161144670236846e-276,"37":3.013854426276706e-276,"38":-5.934094072199641e-275,"39":-4.936321971992813e-275,"40":-9.388677848719759e-276,"41":-1.0394666470968919e-275,"42":1.9370177e-315,"43":-7.893621883457592e-276,"44":-8.625413193469972e-276,"45":-9.786654194321802e-276,"46":-6.327331002810786e-275,"47":-5.43732816042843e-275,"48":-8.50211254772723e-276,"49":-1.1930665224778691e-275,"50":-1.171182174e-315,"51":-8.89337358512858e-276,"52":-9.831353993068378e-276,"53":-1.1273709297164494e-275,"54":-6.347399367895948e-275,"55":-5.496907464999293e-275,"56":-4.72811317833839e-276,"57":5.106525710760014e-277,"58":-1.796459926e-315,"59":-2.2901775052762155e-276,"60":3.261721924673048e-276,"61":1.077308306101011e-276,"62":-6.008499658177633e-275,"63":-4.9447835956804666e-275,"64":-8.873945626488754e-276,"65":-1.3432653625045016e-275,"66":-2.27990287e-315,"67":-9.67285163235919e-276,"68":-1.2038109265709737e-275,"69":-1.2875736972791875e-275,"70":-6.132483254071751e-275,"71":-5.250917215882551e-275,"72":-2.764029136076996e-276,"73":1.0731711672291556e-276,"74":-1.57798046e-315,"75":-1.7197214487625888e-276,"76":2.9349530650508524e-276,"77":1.3935901403708712e-276,"78":-6.100676467483062e-275,"79":-5.1830535191854947e-275,"80":-7.931192298501178e-276,"81":-5.488188414785605e-276,"82":3.091169213e-315,"83":-5.167137571069842e-276,"84":-3.4037741088062473e-276,"85":-4.8945235750977725e-276,"86":-6.415362660338333e-275,"87":-5.519165206746882e-275,"88":-7.1040045492035425e-276,"89":-7.1424856366361196e-276,"90":-7.0129541e-316,"91":-6.3426071860506996e-276,"92":-4.905574246810985e-276,"93":-6.529676533750068e-276,"94":-6.448513104338959e-275,"95":-5.572380461901238e-275,"96":-3.168283361070694e-276,"97":3.4157857622623148e-276,"98":-8.19918915e-316,"99":6.532016578592138e-278,"100":6.0807819854508766e-276,"101":3.9469895219855725e-276,"102":-6.095608112944866e-275,"103":-4.979173973752617e-275,"104":-7.141528054444184e-276,"105":-1.0406740755742452e-275,"106":-1.012135644e-315,"107":-7.146307373740896e-276,"108":-8.869389990141094e-276,"109":-9.86629623042144e-276,"110":-6.217742356533855e-275,"111":-5.2891293879009445e-275,"112":-1.2721009737678966e-276,"113":5.7124758676250676e-276,"114":4.32051455e-316,"115":7.540450809632162e-277,"116":7.577539597522578e-276,"117":6.0380260239354e-276,"118":-6.197949931258064e-275,"119":-5.237945397165163e-275,"120":-6.465618675659597e-276,"121":-1.7775822428538605e-275,"122":4.780551373e-315,"123":-6.539905936070244e-276,"124":-1.621693029590188e-275,"125":-1.713032317451687e-275,"126":-6.354738359493074e-275,"127":-5.497535629206807e-275,"128":-6.268933395229246e-276,"129":-1.9127670258443223e-275,"130":1.269436727e-315,"131":-7.634205163504152e-276,"132":-1.7436955905305427e-275,"133":-1.847933358259609e-275,"134":-6.373908342310928e-275,"135":-5.534305325256217e-275,"136":-3.0282325118535427e-276,"137":-7.048532629855867e-276,"138":8.0643977e-316,"139":-1.3207332825138894e-276,"140":-4.57882094013195e-276,"141":-6.4152810448662554e-276,"142":-6.063897225389502e-275,"143":-4.981821373394152e-275,"144":-6.581622787234904e-276,"145":-1.7300429664836113e-275,"146":6.80641973e-316,"147":-7.852798131688027e-276,"148":-1.5856545233009308e-275,"149":-1.669571758199577e-275,"150":-6.198436766803073e-275,"151":-5.285486622541124e-275,"152":-1.624600043261776e-276,"153":-3.5655076526560705e-276,"154":1.504684103e-315,"155":-8.016266126057696e-277,"156":-1.736515439168995e-276,"157":-3.1740794710780757e-276,"158":-6.236342878249211e-275,"159":-5.309555565612747e-275,"160":-5.073929010098844e-276,"161":-1.933761917491707e-275,"162":2.46862027e-315,"163":-5.365539687563545e-276,"164":-1.805600208731468e-275,"165":-1.8753924564788792e-275,"166":-6.130146613804801e-275,"167":-5.1518742447317976e-275,"168":-4.952042297405371e-276,"169":-1.93410568072334e-275,"170":8.3660067e-316,"171":-6.314953552862107e-276,"172":-1.7633550352960614e-275,"173":-1.867553495725551e-275,"174":-6.160806908710019e-275,"175":-5.1884367515615974e-275,"176":-1.740836527956754e-276,"177":-6.81977732254201e-276,"178":2.71920155e-316,"179":-3.3881997390115426e-277,"180":-4.292661997730461e-276,"181":-6.204314204136138e-276,"182":-5.854309393368046e-275,"183":-4.659893762176801e-275,"184":-5.285764319642081e-276,"185":-1.5746294974068095e-275,"186":4.01802893e-316,"187":-6.311793331063132e-276,"188":-1.41256590407143e-275,"189":-1.5134936114945606e-275,"190":-6.057320469621382e-275,"191":-5.0477748046398463e-275,"192":1.120518077316237e-276,"193":2.099216420295442e-276,"194":1.177662976e-315,"195":2.479012144838764e-276,"196":4.219679029800382e-276,"197":2.481361420424681e-276,"198":-6.145100059492515e-275,"199":-5.116202570335341e-275}},{"sx":5,"sy":5,"depth":8,"w":{"0":-3.124769700895816e-272,"1":-5.557117398900685e-270,"2":-7.798293e-318,"3":-1.2780208267390104e-271,"4":-6.6465531684123044e-270,"5":-5.518916305542818e-270,"6":-2.2124609398947743e-269,"7":-1.6944821948120546e-269,"8":6.767068974358326e-272,"9":-3.1651596450376312e-270,"10":-6.53405e-318,"11":2.254685295116039e-272,"12":-3.7829145046020843e-270,"13":-3.133183131819026e-270,"14":-2.3819934499098832e-269,"15":-2.0741084643306323e-269,"16":-3.786370147074405e-270,"17":-1.1883993391486739e-269,"18":-5.898284e-318,"19":-6.905874374385382e-270,"20":-1.2260512919604608e-269,"21":-1.1844709675642421e-269,"22":-2.4083970569670296e-269,"23":-2.0483296637097843e-269,"24":-9.97487521039031e-270,"25":-2.092938474245542e-269,"26":-5.58077e-319,"27":-1.573318443244365e-269,"28":-2.1291973839409417e-269,"29":-2.090690565136449e-269,"30":-2.2387834145349635e-269,"31":-1.538396111990212e-269,"32":-1.1564898133403484e-269,"33":-2.24933316828981e-269,"34":-4.17e-320,"35":-1.7841768307491807e-269,"36":-2.280021630209843e-269,"37":-2.2451239265729572e-269,"38":-9.963514733906507e-270,"39":-3.625907395849201e-270,"40":-2.153753540620445e-271,"41":-5.488968496384296e-270,"42":-7.432565e-318,"43":-3.784610393179936e-271,"44":-6.497956718334896e-270,"45":-5.408451820140003e-270,"46":-2.2383437867596084e-269,"47":-1.6995650480337195e-269,"48":-1.1358447650398604e-271,"49":-3.454105096275391e-270,"50":-6.56079e-318,"51":-2.43763638722963e-271,"52":-4.110629383643187e-270,"53":-3.4340607045320086e-270,"54":-2.3845903900557593e-269,"55":-2.076080072291352e-269,"56":-4.70707686137973e-270,"57":-1.3877624488839799e-269,"58":-5.95889e-318,"59":-8.312385279504193e-270,"60":-1.4335403303724842e-269,"61":-1.382534011649416e-269,"62":-2.406957871217437e-269,"63":-2.0457510038732228e-269,"64":-1.0630064090536113e-269,"65":-2.1733675631949514e-269,"66":-4.74985e-319,"67":-1.6596457415976577e-269,"68":-2.2109459150207016e-269,"69":-2.1704438105631783e-269,"70":-2.1395744412901326e-269,"71":-1.386220234038988e-269,"72":-1.1708178892479058e-269,"73":-2.2961162963654832e-269,"74":-6.1327e-319,"75":-1.8208261828056874e-269,"76":-2.331264601524139e-269,"77":-2.2925871017618807e-269,"78":-8.023186654529064e-270,"79":-2.1054990505700802e-270,"80":7.099252038441979e-271,"81":-5.142061651737014e-270,"82":-7.810783e-318,"83":5.489107368122565e-271,"84":-6.070285079930908e-270,"85":-5.0042012885483066e-270,"86":-2.1232758935643607e-269,"87":-1.5425801707627613e-269,"88":4.517578781886825e-271,"89":-4.021855671529645e-270,"90":-6.863214e-318,"91":3.017662301753678e-271,"92":-4.67869669172037e-270,"93":-3.9366652049366975e-270,"94":-2.336832333571576e-269,"95":-2.0194864949620348e-269,"96":-5.027322056219448e-270,"97":-1.5007309919593789e-269,"98":-4.837916e-318,"99":-8.884069620724618e-270,"100":-1.5489488176229776e-269,"101":-1.491742950646609e-269,"102":-2.359835296532828e-269,"103":-1.9757890588358058e-269,"104":-1.0518879158639829e-269,"105":-2.2024749035125304e-269,"106":1.594295e-318,"107":-1.6564036073918626e-269,"108":-2.243344995037517e-269,"109":-2.1984778278937458e-269,"110":-1.9025152167922538e-269,"111":-1.0919327309254084e-269,"112":-1.1645917205214332e-269,"113":-2.325864398551641e-269,"114":1.016886e-318,"115":-1.8313954316154388e-269,"116":-2.3632617137863187e-269,"117":-2.3220629792335496e-269,"118":-6.157965757074387e-270,"119":-8.903048516971962e-271,"120":-2.618931962498199e-271,"121":-6.586497962858445e-270,"122":-1.061488e-317,"123":-1.0739240542437782e-270,"124":-7.484720427497083e-270,"125":-6.438132777580445e-270,"126":-2.0676185531443896e-269,"127":-1.479511444844823e-269,"128":-2.146445354665526e-271,"129":-7.337634333211428e-270,"130":-9.541065e-318,"131":-1.3596922617262484e-270,"132":-8.1910870668484e-270,"133":-7.26377118799962e-270,"134":-2.275470081840656e-269,"135":-1.975646376655051e-269,"136":-5.51856681599181e-270,"137":-1.5542533106146273e-269,"138":-6.656803e-318,"139":-9.50534420339789e-270,"140":-1.608928527719434e-269,"141":-1.5434321597812183e-269,"142":-2.2979363732094783e-269,"143":-1.942061396463175e-269,"144":-1.099749382655312e-269,"145":-2.196611129391427e-269,"146":2.5163e-318,"147":-1.6878546029699157e-269,"148":-2.2378288805581068e-269,"149":-2.1925211173863778e-269,"150":-1.870073220785699e-269,"151":-1.1006367192742242e-269,"152":-1.1867383538743093e-269,"153":-2.3042736767849916e-269,"154":1.64606e-318,"155":-1.8409198283141157e-269,"156":-2.3406380906542196e-269,"157":-2.30061928177322e-269,"158":-4.505078304965526e-270,"159":2.37189690519372e-271,"160":1.753673516841614e-272,"161":-1.0425626736312064e-270,"162":-1.0116444e-317,"163":5.054427155551089e-271,"164":-1.5358408069871441e-270,"165":-9.758307017947826e-271,"166":-1.9833330289700533e-269,"167":-1.3815262343542365e-269,"168":-2.3613225842984637e-271,"169":-3.5346838147745967e-270,"170":-9.378655e-318,"171":-5.390201678160474e-271,"172":-4.2104717520000085e-270,"173":-3.514221949922423e-270,"174":-2.214170762886813e-269,"175":-1.9055552547292562e-269,"176":-4.3413383681216754e-270,"177":-1.2840042265195572e-269,"178":-6.50689e-318,"179":-7.568203122148318e-270,"180":-1.3350004718872207e-269,"181":-1.2784550999447173e-269,"182":-2.2465254456876133e-269,"183":-1.8780011578130313e-269,"184":-1.1239918247968277e-269,"185":-2.2374705190264814e-269,"186":3.399745e-318,"187":-1.7136823186752216e-269,"188":-2.2817491199377162e-269,"189":-2.2339796986089948e-269,"190":-1.8465112420357434e-269,"191":-1.0913038386113685e-269,"192":-1.2147345639434257e-269,"193":-2.3437523246405957e-269,"194":2.87584e-318,"195":-1.8707827671049072e-269,"196":-2.382293739608175e-269,"197":-2.3401967864936393e-269,"198":-2.3159093051487252e-270,"199":1.0850302745084082e-270}},{"sx":5,"sy":5,"depth":8,"w":{"0":-2.6581054126239165e-295,"1":-3.7949088257357847e-295,"2":-6.2929e-319,"3":-4.0589858610378305e-295,"4":-3.5419832428210026e-295,"5":-3.83571961697374e-295,"6":-1.4588497905864752e-294,"7":-1.0292336225715904e-294,"8":-2.654096525342843e-295,"9":-4.582475083692548e-295,"10":-7.2869e-319,"11":-3.457612980574376e-295,"12":-4.3349474125851974e-295,"13":-4.526611388665701e-295,"14":-1.4875922005417016e-294,"15":-1.0157982614480548e-294,"16":-4.201525469362457e-295,"17":-5.666283394702604e-295,"18":-1.16625e-318,"19":-3.6756729722839655e-295,"20":-5.451510913786061e-295,"21":-5.659653851397374e-295,"22":-1.568044616140429e-294,"23":-1.3503344990609696e-294,"24":-4.735944494969324e-295,"25":-6.268534095178113e-295,"26":-5.6913e-319,"27":-4.04291536549884e-295,"28":-6.086817644104317e-295,"29":-6.294540840457074e-295,"30":-1.4051041444161246e-294,"31":-1.1897982577723016e-294,"32":-1.914538548559827e-295,"33":-4.456546355467696e-295,"34":-6.02113e-319,"35":-2.77809481513975e-295,"36":-4.283692716118261e-295,"37":-4.328366296992655e-295,"38":-1.0942901386191049e-294,"39":-9.822240318809775e-295,"40":-3.975659099944415e-295,"41":-4.716521776278872e-295,"42":-8.29946e-319,"43":-4.725818130065283e-295,"44":-4.5071890207982895e-295,"45":-4.674657472449428e-295,"46":-1.3974635675638956e-294,"47":-9.729844669630558e-295,"48":-3.4919824173961994e-295,"49":-5.026879173967608e-295,"50":-7.7809e-319,"51":-3.941318489057241e-295,"52":-4.841514103248573e-295,"53":-4.931422879086894e-295,"54":-1.2764336095539737e-294,"55":-9.06530669371655e-295,"56":-4.414038581818932e-295,"57":-5.5779208149719815e-295,"58":-1.11925e-318,"59":-4.248096375740912e-295,"60":-5.452007932034258e-295,"61":-5.546614432714927e-295,"62":-1.3194582159181587e-294,"63":-1.2186353374104546e-294,"64":-5.434540491474917e-295,"65":-5.848281586412379e-295,"66":-6.28965e-319,"67":-5.0547985174905846e-295,"68":-5.737519915697907e-295,"69":-5.872898724837859e-295,"70":-1.3255537402765822e-294,"71":-1.0642081018863396e-294,"72":-3.0117383276372775e-295,"73":-3.908895397113782e-295,"74":-7.64744e-319,"75":-4.005748432938131e-295,"76":-3.731187387515306e-295,"77":-3.790250973691385e-295,"78":-1.1576417607531376e-294,"79":-9.48486477512906e-295,"80":-2.981348342436603e-295,"81":-3.346464236999345e-295,"82":-8.5114e-319,"83":-3.938878866072635e-295,"84":-3.0214252296950588e-295,"85":-3.3059834214088265e-295,"86":-1.2721325711448035e-294,"87":-9.826231778329426e-295,"88":-2.9136527218007578e-295,"89":-2.705634263797181e-295,"90":-7.9222e-319,"91":-3.4033488491123664e-295,"92":-2.403508739601799e-295,"93":-2.762400943047842e-295,"94":-1.1486567456326015e-294,"95":-9.572945556749292e-295,"96":-4.186423786232119e-295,"97":-2.408159263498662e-295,"98":-1.329195e-318,"99":-3.8266203128911897e-295,"100":-2.1426484168378638e-295,"101":-2.5455789513495743e-295,"102":-1.2440109556546701e-294,"103":-1.2426741326996297e-294,"104":-4.8544615622706606e-295,"105":-3.0739110852432383e-295,"106":-7.82733e-319,"107":-4.316266956221069e-295,"108":-2.882684932585681e-295,"109":-3.2270712840467434e-295,"110":-1.228393987322541e-294,"111":-1.0491862373155058e-294,"112":-2.2860521564489856e-295,"113":-1.9865642152961614e-295,"114":-9.6565e-319,"115":-2.883516738993458e-295,"116":-1.7526614568185402e-295,"117":-1.9476757674345448e-295,"118":-1.058490297369164e-294,"119":-9.08666707840318e-295,"120":-8.197153785496287e-296,"121":-2.164851405001979e-295,"122":-8.55405e-319,"123":-1.4129020946460266e-295,"124":-2.0528073132153965e-295,"125":-2.079874798515775e-295,"126":-9.190833265711903e-295,"127":-9.034034529422543e-295,"128":-1.5933038252147635e-295,"129":-5.184821078172819e-296,"130":-7.75397e-319,"131":-9.54708680694144e-296,"132":-3.9849147759343664e-296,"133":-5.379161720338142e-296,"134":-7.38972560410113e-295,"135":-7.78975165604136e-295,"136":-2.205400072329334e-295,"137":3.8761645113193376e-296,"138":-1.226943e-318,"139":-1.02688687986577e-295,"140":4.977218519400206e-296,"141":3.151593178691314e-296,"142":-9.165874484083612e-295,"143":-9.26747587459118e-295,"144":-3.465104418796684e-295,"145":-5.066577735610585e-296,"146":-7.4625e-319,"147":-1.2339872708896614e-295,"148":-3.9129661416529265e-296,"149":-6.267820588496921e-296,"150":-7.2790265935059105e-295,"151":-8.180933787697773e-295,"152":-2.916911590707359e-296,"153":1.0004443587130095e-295,"154":-7.73213e-319,"155":1.7344048355769145e-296,"156":1.1827091710013515e-295,"157":9.720542440478072e-296,"158":-3.464332479828266e-295,"159":-5.208152899142259e-295,"160":-1.256878982299681e-296,"161":-3.1091876447026744e-295,"162":-7.62304e-319,"163":-2.3199458609445034e-296,"164":-2.9233187480256263e-295,"165":-2.9320991380696117e-295,"166":-6.570539902983314e-295,"167":-7.445011838785525e-295,"168":-6.963316304780787e-296,"169":-2.9235734022984354e-295,"170":-6.879e-319,"171":2.8605600321223737e-296,"172":-2.71465425919278e-295,"173":-2.7744701040201658e-295,"174":-5.401123311600785e-295,"175":-6.221079127042406e-295,"176":-1.718545407548572e-295,"177":-3.0143311065852462e-295,"178":-1.130447e-318,"179":-1.600762824549635e-296,"180":-2.791660969381277e-295,"181":-2.8005453324083077e-295,"182":-7.5173111133616085e-295,"183":-8.421676021111212e-295,"184":-3.1240950267863456e-295,"185":-3.180454258932077e-295,"186":-7.61607e-319,"187":-6.591686722881092e-296,"188":-2.957635311136532e-295,"189":-3.1211419849523282e-295,"190":-5.6491940075010334e-295,"191":-7.7233969587949186e-295,"192":-6.203684465746341e-296,"193":-2.280155140362522e-295,"194":-7.33935e-319,"195":2.777185410432402e-296,"196":-2.047600828383196e-295,"197":-2.1513017994055076e-295,"198":-1.3696301674242356e-295,"199":-3.7910203901877384e-295}},{"sx":5,"sy":5,"depth":8,"w":{"0":-4.59265644778669e-309,"1":3.66265246213033e-309,"2":-5.11492087e-316,"3":2.49724025265794e-309,"4":3.989822520845384e-309,"5":3.98971524614969e-309,"6":-1.4795546323099e-310,"7":-1.3675658606158593e-308,"8":-8.72639407578757e-309,"9":-2.36599844425512e-309,"10":-7.72714485e-316,"11":-7.6218009821102e-309,"12":-5.240831487473175e-309,"13":-5.744943890885477e-309,"14":-2.584003133301206e-309,"15":6.792282621762e-310,"16":2.38150092889713e-309,"17":-5.56133613619934e-309,"18":-1.680914626e-315,"19":-4.227204153724204e-309,"20":-4.49699625181786e-309,"21":-4.486779015766604e-309,"22":-2.4020336079518303e-308,"23":-1.9725086948429953e-308,"24":-2.085811403618676e-308,"25":-6.63187315906611e-309,"26":-2.81351472e-316,"27":-8.190830399890405e-309,"28":-4.56029994607194e-309,"29":-4.8949727157807e-309,"30":-5.56354919324135e-309,"31":-9.761082355295915e-309,"32":-1.2475612010403683e-308,"33":-9.400477140180196e-309,"34":-4.120135e-316,"35":-6.39362350031704e-309,"36":-9.26096305668024e-309,"37":-9.72589389709771e-309,"38":-2.007193259095817e-309,"39":-2.64983804644781e-309,"40":-2.684576749901885e-309,"41":2.19458175025896e-309,"42":-8.1831289e-316,"43":6.61861367064941e-309,"44":2.73203694311567e-309,"45":3.042287967172167e-309,"46":-4.802431051944125e-309,"47":-2.0002083194409953e-308,"48":-7.646794714529807e-309,"49":-2.00689887875111e-309,"50":-1.51291739e-315,"51":2.315954898145756e-309,"52":9.85628685628177e-310,"53":1.707707207581377e-309,"54":-5.94174294980281e-309,"55":9.425672098668506e-309,"56":-4.228777450844817e-309,"57":1.44722355094547e-310,"58":-2.37208961e-315,"59":3.185418807791645e-309,"60":-2.847905004747786e-309,"61":-2.39573927606599e-309,"62":-2.105104868219022e-308,"63":-1.6667385276636157e-308,"64":-1.6146511219682775e-308,"65":1.684798771172327e-309,"66":-4.86982197e-316,"67":-4.82862630953152e-309,"68":-1.1471279450924e-309,"69":-1.08735967997417e-309,"70":-7.25708700256587e-309,"71":3.167658777872343e-309,"72":-1.33257683694789e-308,"73":-1.922146381732865e-309,"74":-5.9982455e-316,"75":-6.934780459341924e-309,"76":-7.209514134979993e-309,"77":-6.235625029192413e-309,"78":1.122885720900707e-309,"79":9.085597024687554e-309,"80":2.65101849474877e-309,"81":7.7842831056787e-310,"82":-1.943050675e-315,"83":3.649977231632813e-309,"84":8.44992742319656e-310,"85":8.78948716797173e-310,"86":-8.81490907312853e-309,"87":-2.239517878294572e-308,"88":-1.140745043918792e-308,"89":2.80478114237184e-309,"90":-2.155383104e-315,"91":-7.21736444897697e-309,"92":2.1059409141582e-309,"93":1.72360218090039e-309,"94":-9.085873671451264e-309,"95":3.1381091832846e-309,"96":-7.294204712584516e-309,"97":1.8065903764769496e-308,"98":-3.165884473e-315,"99":-1.005499630186058e-308,"100":1.92740296605188e-308,"101":1.873434423946614e-308,"102":-4.561255134619831e-308,"103":-3.0248457899729296e-308,"104":-2.238112720623215e-308,"105":2.416379520541365e-308,"106":-1.72844815e-315,"107":-1.6838527073899206e-308,"108":2.142675789826585e-308,"109":2.0166462579623335e-308,"110":-3.8353164063723902e-308,"111":-1.2597122140031922e-308,"112":-2.809374829533282e-308,"113":1.8242218903827535e-308,"114":-1.49632663e-315,"115":-1.9209697683564224e-308,"116":1.3763759381179846e-308,"117":1.2938697573972256e-308,"118":-2.4752878526669387e-308,"119":-1.64957257649652e-309,"120":5.56413074314588e-309,"121":-1.280305241146622e-308,"122":-1.57005768e-315,"123":6.890866715893036e-309,"124":-8.625729940497607e-309,"125":-8.56774154242142e-309,"126":-2.412787481612005e-309,"127":-1.403560916975448e-308,"128":4.14665083488416e-309,"129":-1.712321605203069e-308,"130":-1.218732603e-315,"131":3.888660624691857e-309,"132":-1.4289492481067364e-308,"133":-1.455754824946776e-308,"134":8.66974952307206e-309,"135":7.51247415788071e-309,"136":9.19732670048565e-309,"137":-1.0130045066641944e-308,"138":-2.742339964e-315,"139":5.64552221570536e-309,"140":-3.833153602767283e-309,"141":-4.66421380696997e-309,"142":-8.629595118984524e-309,"143":-2.8770977548707124e-308,"144":-6.57509505753528e-309,"145":-1.164621258984467e-309,"146":-1.745110824e-315,"147":1.821737949620687e-309,"148":2.23919024249281e-309,"149":1.593579109428e-310,"150":2.860996099772677e-309,"151":-2.3189006714082185e-308,"152":-1.0995888324861887e-308,"153":2.61681798382278e-309,"154":-2.17749735e-315,"155":-2.99049807148433e-309,"156":3.314331729462783e-309,"157":1.863231702648424e-309,"158":-4.28799475948609e-309,"159":-2.073220679302462e-308,"160":-2.25445597859275e-309,"161":-9.715851004493136e-309,"162":-1.05076802e-315,"163":3.35215751287716e-309,"164":-7.69874818880287e-309,"165":-7.14431327699281e-309,"166":3.741344045777916e-309,"167":2.01932657720448e-309,"168":8.124269456038065e-309,"169":-1.895771284677358e-308,"170":-1.203666343e-315,"171":7.511185733399637e-309,"172":-1.5948032616118785e-308,"173":-1.6257282500272773e-308,"174":1.4691313259904426e-308,"175":2.0008542987838333e-308,"176":1.257383136641665e-308,"177":-2.0269190370014515e-308,"178":-2.092408864e-315,"179":1.07016593510597e-308,"180":-1.6151733701998894e-308,"181":-1.6837881718085995e-308,"182":9.816923942389876e-309,"183":-6.451299199826976e-309,"184":-1.281616694157464e-309,"185":-2.511138547975203e-308,"186":-1.6430924e-315,"187":9.655000068749215e-309,"188":-2.210053530839543e-308,"189":-2.329095400315708e-308,"190":2.660266153771163e-308,"191":4.516880869777114e-309,"192":1.61962991959953e-309,"193":-2.273092070730936e-308,"194":-1.419436114e-315,"195":8.149273206892335e-309,"196":-2.0607716557693327e-308,"197":-2.120045152954417e-308,"198":2.507123377714981e-308,"199":-3.069383405597817e-309}},{"sx":5,"sy":5,"depth":8,"w":{"0":-2.90466346e-316,"1":2.0862168e-316,"2":-3.159076e-318,"3":-1.2945469e-316,"4":2.1815129e-316,"5":1.9540707e-316,"6":-5.51016894e-316,"7":-3.50651e-316,"8":-1.03836705e-316,"9":1.32806323e-316,"10":2.9917e-319,"11":-4.4819936e-317,"12":2.16039996e-316,"13":1.35689695e-316,"14":-5.86723186e-316,"15":-5.8424556e-316,"16":-2.46736887e-316,"17":7.030369e-317,"18":-3.7523e-319,"19":-3.3301986e-317,"20":1.7017822e-316,"21":1.07027405e-316,"22":-1.22426246e-316,"23":-5.849207e-316,"24":-1.205114e-317,"25":-1.2939071e-316,"26":3.125943e-318,"27":-3.1061635e-317,"28":-1.4480932e-316,"29":-2.165518e-316,"30":6.956746e-318,"31":3.7677615e-316,"32":-1.5612579e-316,"33":-1.2581418e-316,"34":6.103193e-318,"35":2.916993e-317,"36":-3.8121927e-317,"37":-7.0295996e-317,"38":-3.3121371e-316,"39":-8.2434885e-316,"40":-2.73050695e-316,"41":-1.92809133e-316,"42":-3.4185e-318,"43":3.5437525e-317,"44":-4.317171e-317,"45":-1.2953494e-316,"46":-1.3564474e-316,"47":-5.81469263e-316,"48":-7.1384477e-317,"49":-2.47646556e-316,"50":4.87698e-318,"51":7.20009e-317,"52":-6.6771895e-317,"53":-2.09860727e-316,"54":-2.39751575e-316,"55":-6.554889e-316,"56":-3.65009573e-316,"57":-2.39106286e-316,"58":-1.985917e-318,"59":-2.15975e-318,"60":-2.5969864e-317,"61":-1.21018386e-316,"62":1.87929385e-316,"63":-6.9455664e-316,"64":-7.2537083e-317,"65":-2.7170149e-316,"66":6.842345e-318,"67":-8.311259e-317,"68":-3.4886637e-316,"69":-3.7698113e-316,"70":9.279973e-317,"71":4.5203254e-316,"72":-1.1610408e-316,"73":-1.9425867e-316,"74":1.995403e-318,"75":-1.974701e-317,"76":-1.28348675e-316,"77":-1.2004835e-316,"78":-5.2333471e-316,"79":-9.65839475e-316,"80":-2.27015645e-316,"81":-1.3913552e-316,"82":1.0092e-319,"83":6.57776e-318,"84":-7.884823e-317,"85":-1.31807693e-316,"86":-1.28284654e-316,"87":-4.43286755e-316,"88":-1.08522507e-316,"89":-1.3384878e-316,"90":4.21106e-318,"91":5.166266e-317,"92":-7.225624e-317,"93":-1.21638414e-316,"94":-1.62011635e-316,"95":-5.19348986e-316,"96":-3.6459756e-316,"97":-2.0872117e-316,"98":-5.036886e-318,"99":3.320667e-317,"100":-1.21971187e-316,"101":-1.3705608e-316,"102":3.9378903e-316,"103":-5.1634436e-316,"104":1.825729e-317,"105":-3.32649503e-316,"106":1.0694757e-317,"107":-4.769172e-317,"108":-3.9077945e-316,"109":-4.2857592e-316,"110":2.98240524e-316,"111":5.99637267e-316,"112":3.4519705e-317,"113":-2.3001625e-316,"114":-5.36407e-319,"115":2.1835004e-317,"116":-8.297022e-317,"117":-1.02904195e-316,"118":-4.1296612e-316,"119":-9.0800165e-316,"120":-1.6530505e-316,"121":-2.31068356e-316,"122":6.44183e-319,"123":9.86479e-318,"124":-8.04137e-317,"125":-1.53315136e-316,"126":-7.146844e-317,"127":-4.26898365e-316,"128":-1.8838521e-316,"129":-2.1421792e-316,"130":1.3024e-319,"131":-1.4641146e-317,"132":-6.3442856e-317,"133":-1.50940306e-316,"134":-2.95863687e-316,"135":-4.5289502e-316,"136":-3.92379737e-316,"137":-1.66242393e-316,"138":-5.328093e-318,"139":-1.22259785e-316,"140":-1.00368413e-316,"141":-1.26796686e-316,"142":-1.231897e-317,"143":-5.15883155e-316,"144":-1.613106e-317,"145":-2.015922e-316,"146":1.0419894e-317,"147":-1.90527597e-316,"148":-2.67307523e-316,"149":-3.10447715e-316,"150":-1.0340649e-316,"151":5.89291765e-316,"152":-2.6362197e-317,"153":-8.942707e-318,"154":-2.3363e-318,"155":-1.05983716e-316,"156":7.1155967e-317,"157":8.321534e-317,"158":-8.0843365e-316,"159":-8.87895896e-316,"160":-6.211774e-318,"161":-2.80900445e-316,"162":-1.1376e-319,"163":5.2630046e-317,"164":-1.64215583e-316,"165":-2.2500839e-316,"166":7.67517e-317,"167":-3.48880493e-316,"168":-1.3361692e-316,"169":-2.014413e-316,"170":3.323733e-318,"171":6.969317e-317,"172":-1.12357944e-316,"173":-1.8807209e-316,"174":-4.4245807e-317,"175":-3.5510467e-316,"176":-2.79442877e-316,"177":-2.38435977e-316,"178":-1.49438e-318,"179":-3.5107267e-317,"180":-1.5931323e-316,"181":-1.88505905e-316,"182":5.250112e-317,"183":-4.5045025e-316,"184":6.945367e-317,"185":-2.6409129e-316,"186":1.009899e-317,"187":-6.664899e-317,"188":-2.902875e-316,"189":-3.2384694e-316,"190":-2.050617e-317,"191":4.10530603e-316,"192":-1.889775e-317,"193":-1.5848558e-316,"194":9.87647e-319,"195":-2.101598e-317,"196":-3.2877455e-317,"197":-2.065341e-317,"198":-6.4459731e-316,"199":-8.8685491e-316}},{"sx":5,"sy":5,"depth":8,"w":{"0":-0.045598666214385894,"1":-0.04621324745780504,"2":9.125380176e-315,"3":-0.1414581512082958,"4":-0.0697760052109386,"5":-0.042096345489059175,"6":-0.06040160083503953,"7":-6.015521785798813e-249,"8":-0.06484423604273454,"9":-0.17593500133928694,"10":1.0247698003e-314,"11":-0.19843503119301958,"12":-0.19357373408533282,"13":-0.16901458978984846,"14":0.3240930449663011,"15":1.2458314614974887e-249,"16":0.0011883385752638816,"17":-0.14006795297553642,"18":3.967690497e-315,"19":0.03416730732217894,"20":-0.13264785380985364,"21":-0.1398703229971825,"22":0.17569762684920393,"23":-1.3685798704076329e-250,"24":0.01450552795765612,"25":0.0830301471645918,"26":5.9196533e-315,"27":0.08815726832269355,"28":0.1019431031060941,"29":0.07951582360636678,"30":-0.09560332690209092,"31":9.123878216466973e-251,"32":-0.061737087604664544,"33":-0.122159811210102,"34":3.54086711e-315,"35":-0.19144003885032176,"36":-0.14486191068221832,"37":-0.11588594629205964,"38":0.10848323498825646,"39":5.698098053137255e-249,"40":-0.030746650784389363,"41":0.008682565613803043,"42":6.375972287e-315,"43":-0.1040826961913062,"44":-0.00673412198580938,"45":0.011830132457244293,"46":-0.009574687298846453,"47":-1.4451293527826424e-249,"48":-0.03979098966649307,"49":-0.08074063414480051,"50":8.723029053e-315,"51":-0.11652746429569458,"52":-0.08902001234330696,"53":-0.07537312602952492,"54":0.3348147006355852,"55":3.3897187823138357e-249,"56":0.030346563913054993,"57":0.01511491073522536,"58":2.420216346e-315,"59":0.13356289861380774,"60":0.03734186740471678,"61":0.01089308367107445,"62":0.16370158580359964,"63":4.613868247236167e-249,"64":0.043372110209500686,"65":0.22972769074937396,"66":7.890781327e-315,"67":0.17081704807430206,"68":0.2526064416007037,"69":0.22273154620589358,"70":-0.11668952884426809,"71":-8.561085754249763e-250,"72":-0.03732296082359013,"73":0.07300160961997872,"74":4.809998664e-315,"75":-0.11886677907777483,"76":0.07099799923205516,"77":0.07462975905432166,"78":0.0735256040648686,"79":5.646173684475576e-249,"80":-0.034395378844600644,"81":-0.032550376744859395,"82":5.28463262e-315,"83":-0.12185971770565263,"84":-0.04692214920355282,"85":-0.02968135549816371,"86":-0.021010416707472817,"87":-4.306154107033803e-250,"88":-0.03570101633920869,"89":-0.08014060690223619,"90":8.66581118e-315,"91":-0.08773285277181375,"92":-0.0889048148004502,"93":-0.07552543392329003,"94":0.2461904408425425,"95":1.7007249008890408e-249,"96":0.03928360765079279,"97":0.07495016935279596,"98":3.454075667e-315,"99":0.18183812039225034,"100":0.10483634541518806,"101":0.06955254190762059,"102":-0.01884193497617838,"103":6.846196010343385e-250,"104":0.05636609564335443,"105":0.2940129246504442,"106":9.94711073e-315,"107":0.2226757625920786,"108":0.32612468432786257,"109":0.28439846356942383,"110":-0.38701083181703694,"111":-7.38578315195736e-249,"112":-0.019146600868540982,"113":0.18394047258757043,"114":3.653535057e-315,"115":-0.04410825534802824,"116":0.1661190728983061,"117":0.18323261993582293,"118":-0.1354251494983965,"119":-1.4920425014184962e-249,"120":-0.037654970557019864,"121":-0.07104568144204908,"122":5.10309642e-315,"123":-0.13190915687747182,"124":-0.09109366860508461,"125":-0.0674811855744878,"126":0.06962209236539076,"127":2.0613408963744993e-249,"128":-0.012813880944123435,"129":-0.01631416402315957,"130":8.04445615e-315,"131":-0.024837625446840022,"132":-0.019456287133815416,"133":-0.014088672823074138,"134":0.1773299635773256,"135":1.570188066703418e-249,"136":0.05220424769209788,"137":0.17897191481771804,"138":4.774856605e-315,"139":0.2037805942755853,"140":0.2121629123985572,"141":0.171536268798298,"142":-0.08348916595501263,"143":5.266703944419809e-251,"144":0.061441054999265735,"145":0.3521992514749975,"146":7.61202509e-315,"147":0.23009066980541712,"148":0.37270313728885024,"149":0.3432757975868596,"150":-0.41351132725995843,"151":-5.561308885784021e-249,"152":-0.00661347215910648,"153":0.18451122027510886,"154":-1.74316789e-315,"155":-0.02247934276293319,"156":0.18225583418314384,"157":0.1832277185121432,"158":-0.15944572676539892,"159":1.269235758984779e-249,"160":-0.049861454557393325,"161":-0.18912661068251402,"162":5.787210833e-315,"163":-0.15407049059770153,"164":-0.20572014440141162,"165":-0.1842821941872773,"166":0.007668907432983657,"167":5.944173491062924e-249,"168":-0.021614686249096675,"169":-0.08080282807577684,"170":6.144136296e-315,"171":-0.04778643740792333,"172":-0.08518592174783,"173":-0.07926625108987871,"174":0.13863782829944946,"175":4.069584099264914e-249,"176":0.032356149360130315,"177":0.06719048326885957,"178":6.045591633e-315,"179":0.11990196974053889,"180":0.08783696958109787,"181":0.0621952998667017,"182":-0.09252745399178001,"183":3.232904654931592e-249,"184":0.037605207323848575,"185":0.20823453422485785,"186":6.466951146e-315,"187":0.14010737984932675,"188":0.2239376614112012,"189":0.20233045588646068,"190":-0.33750323206146055,"191":1.0596939457400724e-249,"192":-0.009076828563993965,"193":0.11308607232105237,"194":1.289028377e-315,"195":-0.019776055217978147,"196":0.11652163214090311,"197":0.11163933642109096,"198":-0.20536450352564234,"199":4.390595222355259e-249}},{"sx":5,"sy":5,"depth":8,"w":{"0":0.0093624748107869,"1":0.06288277897009699,"2":-3.953998194e-315,"3":0.02955943413557974,"4":0.06268622292815645,"5":0.06169897680053471,"6":-0.08755263095629759,"7":-1.157169431581024e-249,"8":0.023894043495608815,"9":0.12491635135292833,"10":-4.74600827e-315,"11":0.0784164682519026,"12":0.1331325389309736,"13":0.12120150321571187,"14":-0.09054541402556068,"15":-4.427228116235394e-249,"16":0.013869657076539458,"17":0.15729631633661573,"18":-4.853625604e-315,"19":0.06511889435274705,"20":0.16559614224422983,"21":0.15342550816103165,"22":-0.14028007230804182,"23":-4.0854188802864075e-249,"24":0.019896624787449104,"25":0.160327150796981,"26":-7.09339139e-315,"27":0.07189016338754968,"28":0.16928921631739677,"29":0.15744752132642198,"30":-0.10628500391972852,"31":-6.766138045108799e-249,"32":0.020929593269122544,"33":0.1953449487584117,"34":-5.85880745e-315,"35":0.08373649892091736,"36":0.20755684707464556,"37":0.19093870859306444,"38":-0.08661132298160543,"39":-2.461625023453865e-249,"40":0.014192154480508978,"41":0.057462514999769045,"42":-4.76852037e-315,"43":0.053126418417823465,"44":0.06245995581512605,"45":0.05576745101506435,"46":-0.06596793143444181,"47":-1.987804842558295e-249,"48":0.022710892732103874,"49":0.12584365838254194,"50":-3.899183443e-315,"51":0.07809531357892556,"52":0.13474962541382215,"53":0.12225084900377389,"54":-0.05092743320825592,"55":-3.956917459295973e-249,"56":0.013613400346158717,"57":0.14881946166862692,"58":-4.31685596e-315,"59":0.0594066575332278,"60":0.15362168275619043,"61":0.1452340411340935,"62":-0.08850680669258623,"63":-4.459944757221756e-249,"64":0.02067940710670724,"65":0.1635533178540097,"66":-6.237700166e-315,"67":0.07273936779233382,"68":0.16849414135999474,"69":0.16009745959129928,"70":-0.05855544994494225,"71":-6.740710859812337e-249,"72":0.028483597671911366,"73":0.22517165251710292,"74":-5.18643715e-315,"75":0.1085124744596027,"76":0.23429651946177066,"77":0.219880279152494,"78":-0.04426230582469108,"79":-2.309499048028579e-249,"80":0.0056980726718146475,"81":-0.025961796635445084,"82":-5.893318906e-315,"83":0.017960283474593598,"84":-0.02290687312792167,"85":-0.02586092658493833,"86":0.04894019713087487,"87":1.631360394212333e-249,"88":0.0011183635755510973,"89":-0.002197580860428758,"90":-4.455834425e-315,"91":0.0026855874852617576,"92":0.0019416739629768316,"93":-0.0027484590407329877,"94":0.11301768655170072,"95":-3.0543730112493795e-249,"96":-0.0015726433217917923,"97":-0.0017397127231965394,"98":-4.288179187e-315,"99":0.00724225653317326,"100":0.002972783335100661,"101":-0.0025818587177481194,"102":0.10267596046692302,"103":-2.1699787304895648e-249,"104":0.006517695313058997,"105":0.04067798952242166,"106":-4.961128795e-315,"107":0.023227319208652064,"108":0.045776077956719154,"109":0.039268841035375125,"110":0.11007364665945231,"111":-4.545149168136648e-249,"112":0.03364635238946904,"113":0.15039129339826526,"114":-3.036661124e-315,"115":0.11679100286178366,"116":0.1656501420325668,"117":0.14613533879372245,"118":0.05388771591541212,"119":-2.0078080172442405e-249,"120":-0.019702010522568703,"121":-0.156211173052745,"122":-6.01587117e-316,"123":-0.06191900146285332,"124":-0.16514005750917393,"125":-0.15253337715168147,"126":0.1870626284506414,"127":4.980942625522931e-249,"128":-0.0369470802906897,"129":-0.19612997281011124,"130":-4.27774823e-316,"131":-0.12123303618606497,"132":-0.2152584949902456,"133":-0.1914102206378243,"134":0.2678419402788222,"135":-8.397188168155152e-251,"136":-0.040210558925584394,"137":-0.22821847842319637,"138":-1.74380275e-315,"139":-0.11884619646890093,"140":-0.24633297640865784,"141":-0.2232755368064395,"142":0.3020784795202719,"143":4.4251432936977996e-250,"144":-0.02363349270013075,"145":-0.14775166574725063,"146":-1.75628363e-315,"147":-0.06206145116187155,"148":-0.15648841432110366,"149":-0.14525199867393934,"150":0.23036042090581837,"151":2.2219502808083494e-250,"152":0.0005505857949052344,"153":-0.04440384149441894,"154":-1.8064182e-316,"155":0.01871506958029978,"156":-0.04489335707110842,"157":-0.04466817526606176,"158":0.07982495410764447,"159":5.500282114685847e-250,"160":-0.02764858278028628,"161":-0.18175289225188906,"162":-1.09024186e-316,"163":-0.08731401169927729,"164":-0.18980333473101127,"165":-0.17798780752858367,"166":0.21553784531572287,"167":3.5484645529955674e-249,"168":-0.045043011652012126,"169":-0.2605718604529567,"170":-6.80083007e-316,"171":-0.14569683023561736,"172":-0.2814030341213103,"173":-0.2541087373128874,"174":0.3060780949923013,"175":-3.326966196208812e-250,"176":-0.046078850631385004,"177":-0.29319031407857254,"178":-2.072535217e-315,"179":-0.14039483853920606,"180":-0.3089931453828021,"181":-0.28707285891988754,"182":0.3196286919283326,"183":2.3955316125412125e-249,"184":-0.03737442301217535,"185":-0.2194256524469103,"186":-1.163877235e-315,"187":-0.09899609425585439,"188":-0.23138078589914965,"189":-0.21509983068850888,"190":0.2776821310746773,"191":1.8150814573462166e-250,"192":-0.008430835057053443,"193":-0.11432950069622705,"194":3.2492595e-316,"195":-0.012999490655761012,"196":-0.11358865204122298,"197":-0.11332149487950086,"198":0.1299129388445666,"199":-1.1549305470576713e-249}},{"sx":5,"sy":5,"depth":8,"w":{"0":-2.2051251293304353e-298,"1":-2.5818425014004705e-298,"2":4.7933e-319,"3":-2.5454376015537016e-298,"4":-2.693424852091019e-298,"5":-2.5200213965998294e-298,"6":-4.767905890097262e-298,"7":-4.264229181853627e-298,"8":-2.0821406911792945e-298,"9":-2.219285172448796e-298,"10":5.5422e-319,"11":-2.354208780129132e-298,"12":-2.307906840893747e-298,"13":-2.1680135973286862e-298,"14":-4.509726698810692e-298,"15":-4.140192439328256e-298,"16":-2.1598509552401254e-298,"17":-1.9476865642317266e-298,"18":6.1353e-319,"19":-2.3236063772469386e-298,"20":-2.036785323961855e-298,"21":-1.8865655736445758e-298,"22":-4.791821816916791e-298,"23":-4.470530752749248e-298,"24":-2.4802417586299695e-298,"25":-1.8533880122120514e-298,"26":5.6835e-319,"27":-2.3751927307497962e-298,"28":-1.939350978348804e-298,"29":-1.8260695429832927e-298,"30":-4.828099217478292e-298,"31":-4.553329870640058e-298,"32":-2.480531062575154e-298,"33":-1.9325170132878684e-298,"34":7.02487e-319,"35":-2.2603318193634647e-298,"36":-2.0259924251503703e-298,"37":-1.9262249993502816e-298,"38":-4.5231228443385544e-298,"39":-4.2722432357169224e-298,"40":-1.7982265480449493e-298,"41":-3.4658979967307895e-298,"42":2.03856e-319,"43":-1.944399246572336e-298,"44":-3.570631318925505e-298,"45":-3.38456168358576e-298,"46":-4.912260702739627e-298,"47":-4.7030654198219e-298,"48":-1.5180286052377517e-298,"49":-3.2312597321133667e-298,"50":2.21994e-319,"51":-1.6221957727737082e-298,"52":-3.317363173568187e-298,"53":-3.171665304551264e-298,"54":-4.602482629467433e-298,"55":-4.534017014479016e-298,"56":-1.490001592591286e-298,"57":-3.061990021748348e-298,"58":3.1049e-319,"59":-1.5089005691210422e-298,"60":-3.1480834027811974e-298,"61":-2.9755596200496422e-298,"62":-4.907869795465288e-298,"63":-4.875648392954135e-298,"64":-1.8507533179952788e-298,"65":-3.0252170051691524e-298,"66":3.4298e-319,"67":-1.5196589140855675e-298,"68":-3.104293008790137e-298,"69":-2.972431685676251e-298,"70":-5.003527682087263e-298,"71":-5.077604203568988e-298,"72":-2.066560974015185e-298,"73":-2.8907992023163184e-298,"74":4.44704e-319,"75":-1.5524903745721017e-298,"76":-2.983112446432492e-298,"77":-2.8765778955242095e-298,"78":-4.675966265613034e-298,"79":-4.728136416627799e-298,"80":-1.3456591424732512e-298,"81":-3.7289351656677554e-298,"82":2.2284e-319,"83":-1.3746032234078719e-298,"84":-3.830801241107598e-298,"85":-3.677687733650341e-298,"86":-4.683721625648915e-298,"87":-4.467983582832972e-298,"88":-1.195567366491476e-298,"89":-3.6348074985380216e-298,"90":1.6191e-319,"91":-1.197819482898341e-298,"92":-3.721095490075313e-298,"93":-3.589961911809201e-298,"94":-4.251562640299406e-298,"95":-4.166613365452854e-298,"96":-9.763478947075248e-299,"97":-3.366261177181348e-298,"98":2.21816e-319,"99":-1.0087224766639375e-298,"100":-3.4530717425681236e-298,"101":-3.292172021509533e-298,"102":-4.6999754291170645e-298,"103":-4.587566957008251e-298,"104":-1.4249885845986379e-298,"105":-3.324530964209907e-298,"106":2.9666e-319,"107":-1.0337814881606142e-298,"108":-3.4081738311271963e-298,"109":-3.2780614564573837e-298,"110":-4.85908211066098e-298,"111":-4.922185185207591e-298,"112":-1.7152305252921355e-298,"113":-3.202570507467456e-298,"114":2.9668e-319,"115":-1.0996080112044335e-298,"116":-3.2898082243498623e-298,"117":-3.183568555644055e-298,"118":-4.549544438304856e-298,"119":-4.609464283253754e-298,"120":-1.6797263876883996e-298,"121":-4.154620721989706e-298,"122":2.5091e-319,"123":-1.838843081999031e-298,"124":-4.275976805591909e-298,"125":-4.0994523235883005e-298,"126":-4.57071299198794e-298,"127":-4.074707216199031e-298,"128":-1.4050725448657903e-298,"129":-4.102678573234378e-298,"130":1.5062e-319,"131":-1.6427508320481287e-298,"132":-4.21156424496251e-298,"133":-4.060608019377365e-298,"134":-4.0800151630455695e-298,"135":-3.6968037686381925e-298,"136":-1.2219615804161297e-298,"137":-3.7706664711191638e-298,"138":1.28625e-319,"139":-1.4902533944876434e-298,"140":-3.886918992948756e-298,"141":-3.688461522269206e-298,"142":-4.600037627522456e-298,"143":-4.191102744878511e-298,"144":-1.6543773681527177e-298,"145":-3.5996947567182956e-298,"146":2.2159e-319,"147":-1.437586229156857e-298,"148":-3.7070670684173326e-298,"149":-3.5571893188105677e-298,"150":-4.858735011793065e-298,"151":-4.727870665993951e-298,"152":-1.8509382990194367e-298,"153":-3.5406570689912043e-298,"154":1.02993e-319,"155":-1.4554939575590652e-298,"156":-3.6500224253020293e-298,"157":-3.5145061265153288e-298,"158":-4.471862581833738e-298,"159":-4.350725096292846e-298,"160":-2.0292385377082983e-298,"161":-3.979801950026308e-298,"162":2.68006e-319,"163":-2.229069614984049e-298,"164":-4.120628422052311e-298,"165":-3.9478920408563306e-298,"166":-4.617367080684191e-298,"167":-3.859032385615679e-298,"168":-1.9392209599804053e-298,"169":-3.9185139498957095e-298,"170":1.41313e-319,"171":-2.2409592475795947e-298,"172":-4.044001713735764e-298,"173":-3.889766025249549e-298,"174":-4.097673038809697e-298,"175":-3.2906786869431184e-298,"176":-1.525950181741107e-298,"177":-3.593673198488906e-298,"178":5.8616e-320,"179":-1.9586662032179605e-298,"180":-3.729283289842778e-298,"181":-3.5296337104949987e-298,"182":-4.750974830551265e-298,"183":-4.068694041346803e-298,"184":-2.0355821144367502e-298,"185":-3.500584125769236e-298,"186":2.00936e-319,"187":-1.962576901224343e-298,"188":-3.619792259426118e-298,"189":-3.465567615677769e-298,"190":-4.861240630179628e-298,"191":-4.509803037002498e-298,"192":-2.0915245678164013e-298,"193":-3.281661607566081e-298,"194":6.905e-320,"195":-1.8815255299267624e-298,"196":-3.406896899824964e-298,"197":-3.2698165095299227e-298,"198":-4.754689831408409e-298,"199":-4.2698442229219305e-298}},{"sx":5,"sy":5,"depth":8,"w":{"0":-1.4199341035313546e-212,"1":-2.115972751232487e-212,"2":-3.32512405e-315,"3":-2.4607547609081593e-212,"4":-2.084723500684414e-212,"5":-1.9724020318870236e-212,"6":-2.4961140941567413e-212,"7":5.596839626721764e-250,"8":-7.765190554395685e-213,"9":-1.2941716924455217e-212,"10":-5.6765469e-316,"11":-1.0747144069224454e-212,"12":-9.886931528748122e-213,"13":-9.626665381580398e-213,"14":-1.2060260172053823e-212,"15":9.835969251578526e-251,"16":-1.889398903520686e-213,"17":6.371142764865002e-213,"18":-8.55208226e-316,"19":1.1115628048335094e-213,"20":6.201028303512037e-213,"21":5.329881926953211e-213,"22":-2.4182960161377643e-212,"23":-1.4512286223792416e-249,"24":-9.457464621324566e-215,"25":9.118057036437106e-213,"26":-2.599369223e-315,"27":2.0856020242400358e-213,"28":1.0910038970280226e-212,"29":9.622629389049767e-213,"30":-1.639232610721096e-212,"31":-1.974038566345657e-249,"32":-1.0132281679653882e-212,"33":-1.1154403336428504e-212,"34":-8.4218852e-316,"35":-1.5456354623806496e-212,"36":-5.2433668320187353e-213,"37":-5.5417439820206104e-213,"38":2.5490075438529733e-212,"39":1.1005309477949112e-249,"40":-1.201171954863263e-212,"41":-2.3689215966524585e-212,"42":-3.868000337e-315,"43":-2.0782313370360914e-212,"44":-2.5192492642802684e-212,"45":-2.3696806946478285e-212,"46":-1.1094484194981786e-212,"47":3.57166335625763e-250,"48":-6.473833814777707e-213,"49":-7.791749635438086e-213,"50":-7.26000193e-316,"51":-6.834828421208464e-213,"52":-4.907448570439704e-213,"53":-5.0905870711147965e-213,"54":-2.4302051005934653e-213,"55":-1.6121292854006832e-249,"56":3.418981965337501e-213,"57":1.5922982242864632e-212,"58":-9.65224837e-316,"59":1.059109964703511e-212,"60":1.5389644802880052e-212,"61":1.391292688656162e-212,"62":-2.8081128923196625e-212,"63":-5.012329707586483e-249,"64":-1.1960739362608977e-214,"65":1.3883494972982907e-212,"66":-2.871145264e-315,"67":2.5737346372552757e-213,"68":1.6596119596944662e-212,"69":1.4702000794977376e-212,"70":-1.9248987325436403e-212,"71":-2.7730936103830904e-249,"72":-1.641240213271182e-212,"73":-1.7812077925503485e-212,"74":-1.397105167e-315,"75":-2.6678429517306385e-212,"76":-1.1646628537786245e-212,"77":-1.1815523150094922e-212,"78":4.031149261646234e-212,"79":3.4192752046308167e-249,"80":-1.0269601840784636e-212,"81":-1.8172745769965834e-212,"82":-3.279335957e-315,"83":-1.532405737775423e-212,"84":-1.9303331209004103e-212,"85":-1.802383718798821e-212,"86":-1.6506272134600291e-212,"87":-2.5245050620592795e-250,"88":-5.128553584282516e-213,"89":-2.1665992904801296e-213,"90":-5.3696623e-316,"91":-3.6062048796062244e-213,"92":-7.552307572846133e-214,"93":-1.1098051590403662e-213,"94":-6.336482899104671e-213,"95":-5.603288717924242e-250,"96":6.027887543999305e-213,"97":2.1185396428227937e-212,"98":-1.20638639e-315,"99":1.4725022695665837e-212,"100":1.9207319076524784e-212,"101":1.7449650535293024e-212,"102":-3.2514042872810404e-212,"103":-5.555677736354487e-249,"104":-5.572342308692937e-215,"105":1.2800820571815324e-212,"106":-3.31686054e-315,"107":2.5212435130059105e-213,"108":1.5450499153694209e-212,"109":1.3833552235962696e-212,"110":-1.3951235542742123e-212,"111":-3.283281565905865e-249,"112":-1.9584103667848812e-212,"113":-2.7178273899767305e-212,"114":-1.45676994e-315,"115":-3.3671972930539817e-212,"116":-1.9784211146626332e-212,"117":-1.9138928889289339e-212,"118":4.5242842794736994e-212,"119":2.8210159724499994e-249,"120":-1.1172197408477132e-212,"121":-2.1091196817334338e-212,"122":-3.34406642e-315,"123":-1.6042213084971539e-212,"124":-2.1852032014028306e-212,"125":-2.0511689001204642e-212,"126":-1.5371830266178542e-212,"127":1.417390540652779e-250,"128":-4.820838656172269e-213,"129":-7.481859587719082e-214,"130":-2.0506958e-316,"131":-2.528890496196136e-213,"132":4.487046889032699e-214,"133":7.451199869225213e-215,"134":-5.1867948064843296e-213,"135":8.261011747375484e-250,"136":3.387437644278903e-213,"137":1.7577740463956657e-212,"138":3.62071384e-316,"139":1.0948043565865007e-212,"140":1.57606480489969e-212,"141":1.423646645127977e-212,"142":-2.6613028488272654e-212,"143":-6.997727084802678e-249,"144":-1.8180261171712433e-213,"145":1.0105675446685425e-212,"146":-2.074937073e-315,"147":1.2025833633792937e-213,"148":1.1897919068537288e-212,"149":1.0301709308547236e-212,"150":-1.5269235483711709e-212,"151":-3.1697640463877205e-249,"152":-1.5804907780613957e-212,"153":-2.2346753786818094e-212,"154":-1.09394737e-315,"155":-2.544387404005622e-212,"156":-1.847886863406615e-212,"157":-1.7846809132913425e-212,"158":4.6155692503067393e-212,"159":3.5389660113843396e-249,"160":-1.0460459238709249e-212,"161":-2.064994018291172e-212,"162":-4.25083214e-315,"163":-1.5332745241870004e-212,"164":-2.2499989714957884e-212,"165":-2.1333793035287965e-212,"166":-6.418269612554779e-213,"167":2.8543209264366644e-250,"168":-6.006143541479611e-213,"169":-5.259214291526212e-213,"170":-8.2170706e-316,"171":-5.27278845722288e-213,"172":-5.306432686922033e-213,"173":-5.4499283884425964e-213,"174":-3.1913521876598865e-213,"175":3.539561973703767e-249,"176":1.8525924531594023e-213,"177":1.0003739281655646e-212,"178":4.0522685e-316,"179":6.579829981509746e-213,"180":8.789012164340215e-213,"181":7.525372068544859e-213,"182":-1.7023575563784315e-212,"183":-5.868707981958925e-249,"184":-1.9160799776939247e-213,"185":4.2768315749020774e-213,"186":-2.252833086e-315,"187":4.402986651689344e-214,"188":4.7604832039049555e-213,"189":3.877915900976879e-213,"190":-1.270223391612832e-212,"191":-3.422676355259141e-249,"192":-1.133052220777298e-212,"193":-1.4380355800030153e-212,"194":-2.40882859e-315,"195":-1.7884755264659376e-212,"196":-1.2120001636273663e-212,"197":-1.1736307224245717e-212,"198":3.660172523707267e-212,"199":3.106163148228961e-249}},{"sx":5,"sy":5,"depth":8,"w":{"0":-1.847998031480883e-230,"1":-3.6143585544160536e-230,"2":4.19114303e-315,"3":-2.3253751081306847e-230,"4":-3.9997121988874664e-230,"5":-3.693937463750762e-230,"6":1.6440771085722146e-230,"7":7.254944147233102e-250,"8":-9.904897991777516e-231,"9":-2.408205723327995e-230,"10":2.283230905e-315,"11":-1.3908121847208292e-230,"12":-2.917189238167639e-230,"13":-2.626269920096627e-230,"14":3.072076315269353e-230,"15":2.262828903684755e-249,"16":-9.78827526717031e-231,"17":-2.5131551163191214e-230,"18":1.90717292e-315,"19":-6.457084764495998e-231,"20":-3.7719661833653454e-230,"21":-3.484128691536763e-230,"22":3.3155912559232707e-230,"23":9.634101708189868e-250,"24":-2.1090443877170282e-230,"25":-4.246174666788147e-230,"26":2.11206617e-315,"27":-3.1366350829266667e-230,"28":-4.508361930393219e-230,"29":-4.3495166592497315e-230,"30":4.974706775228852e-230,"31":2.3521566971177616e-249,"32":-2.3836019281039065e-230,"33":-3.0259566011338815e-230,"34":2.04129715e-315,"35":-2.2012794706827336e-230,"36":-3.1703532527850587e-230,"37":-3.1446518507689487e-230,"38":9.153744375412917e-230,"39":1.7103016096242968e-249,"40":-3.0104809998202933e-230,"41":-6.152277026465834e-230,"42":4.896051515e-315,"43":-4.615018320921959e-230,"44":-6.886613648934203e-230,"45":-6.521550384268956e-230,"46":1.5406239550137029e-230,"47":1.257772170244054e-249,"48":-2.5020126385422503e-230,"49":-7.784526821813213e-230,"50":3.401115253e-315,"51":-5.173548716313057e-230,"52":-7.87940633653781e-230,"53":-7.467171863978088e-230,"54":2.9997077724237417e-230,"55":2.9423074238137334e-249,"56":-8.667699733933429e-231,"57":-3.380867606865329e-230,"58":3.006916164e-315,"59":-1.8549280484123518e-230,"60":-3.841782892351218e-230,"61":-3.322966211022147e-230,"62":1.952915948991374e-230,"63":1.3609980174085494e-249,"64":-1.9044529118608492e-230,"65":-4.522744204416912e-230,"66":3.244776663e-315,"67":-3.3242255598448536e-230,"68":-4.0210854068165587e-230,"69":-4.587793470461673e-230,"70":3.9321066308991822e-230,"71":3.0205207796756724e-249,"72":-1.9135457808397015e-230,"73":-4.309811385211624e-230,"74":3.42132271e-315,"75":-3.537883817776801e-230,"76":-4.172277323555163e-230,"77":-3.705796482003769e-230,"78":5.811398747002519e-230,"79":2.3939100230024797e-249,"80":-2.2234623392511773e-230,"81":-2.039038328075469e-230,"82":5.46695717e-315,"83":-2.3252824997978827e-230,"84":-1.8442232595418392e-230,"85":-1.9458949440328593e-230,"86":-3.973250516790288e-231,"87":-1.0110913556594782e-249,"88":-1.7644082846559934e-230,"89":-1.2962481118344936e-230,"90":3.601606633e-315,"91":-1.7561091302797142e-230,"92":-1.1532091007838218e-230,"93":-1.2507654434101245e-230,"94":-1.9223356008542873e-230,"95":-9.124199360833512e-250,"96":1.9226867194864102e-231,"97":1.6250147110093355e-230,"98":2.601883736e-315,"99":1.0674525599553035e-230,"100":1.2713442285550255e-230,"101":1.1422633546440314e-230,"102":-2.7969076913085846e-230,"103":-9.929730235426826e-250,"104":8.327863603931282e-231,"105":3.6489973263061423e-230,"106":2.91796652e-315,"107":2.0580894095359496e-230,"108":4.0001604146000286e-230,"109":3.6101949401536058e-230,"110":-2.634753658695323e-230,"111":-1.392164960806099e-249,"112":-3.338906061569409e-231,"113":1.8735039566383162e-230,"114":3.272401513e-315,"115":2.3228459823592177e-231,"116":2.7850447394411175e-230,"117":2.4286434862146514e-230,"118":1.2617709352591558e-231,"119":-8.121254093366288e-250,"120":-8.632857568701885e-231,"121":4.881524297965328e-231,"122":4.685911923e-315,"123":1.133883705577234e-231,"124":5.979660690241036e-231,"125":3.7801493479023584e-231,"126":-2.102987210217473e-230,"127":-1.147563431271751e-249,"128":-6.814517206910058e-231,"129":9.595385663117492e-231,"130":2.45766795e-315,"131":1.0614832723857293e-231,"132":1.4999386972209536e-230,"133":1.1334872083784458e-230,"134":-5.486348281553395e-230,"135":-2.0221132559912804e-249,"136":5.3901682850699994e-232,"137":1.835111447971096e-230,"138":2.27855749e-315,"139":1.3882884348999574e-230,"140":2.0021718387406131e-230,"141":1.644541556900848e-230,"142":-7.331895607529984e-230,"143":-2.349144713731549e-249,"144":1.2153445904112735e-230,"145":4.517344155221505e-230,"146":3.377797706e-315,"147":3.085392337448852e-230,"148":5.035458149314396e-230,"149":4.602879371890957e-230,"150":-7.164926422077921e-230,"151":-2.4110645870547567e-249,"152":7.293975985225838e-231,"153":3.0982045770111434e-230,"154":2.917284933e-315,"155":1.825886322255124e-230,"156":3.956758812163881e-230,"157":3.5829452295029907e-230,"158":-3.412130011434874e-230,"159":-2.0870861083825593e-249,"160":-1.4675493254558628e-230,"161":-4.1413596580499676e-231,"162":3.90348588e-315,"163":-1.1908339250006764e-230,"164":-3.6894403225696726e-231,"165":-5.097339984980595e-231,"166":1.202961209077676e-231,"167":-3.7446023083273973e-249,"168":-1.7441194415578358e-230,"169":-6.87603353844757e-231,"170":2.008005397e-315,"171":-1.3453426865686163e-230,"172":-8.422975628945411e-231,"173":-1.0201088217088976e-230,"174":-3.7558703509670243e-230,"175":-3.2620476183048627e-249,"176":-1.570443773735525e-230,"177":-9.182023581877288e-231,"178":2.23425237e-315,"179":-1.568103194751626e-230,"180":-5.581648987533657e-231,"181":-8.309315402601283e-231,"182":-8.772854867689456e-230,"183":-4.278816408468729e-249,"184":-3.8255599166088884e-231,"185":6.754310570919051e-231,"186":2.84332227e-315,"187":2.6401336269985e-231,"188":9.452000738525339e-231,"189":7.351732771990665e-231,"190":-5.947677623843212e-230,"191":-3.539131313510321e-249,"192":1.3801961387255747e-230,"193":4.24352652824845e-230,"194":2.6736856e-315,"195":2.339737118284388e-230,"196":4.7362290999603545e-230,"197":4.467574662396656e-230,"198":-1.1162269076643372e-230,"199":-3.0888401984395023e-249}}],"biases":{"sx":1,"sy":1,"depth":16,"w":{"0":-0.17608195600491525,"1":-0.1556300279243818,"2":-0.00036130391616537305,"3":-0.1410558748236056,"4":-0.018142072062348493,"5":-0.0017778790575819856,"6":-0.0005612565750221278,"7":-0.0012432253838485104,"8":-0.0034885886906531856,"9":-0.15268958319787976,"10":-0.04919864373170845,"11":4.180708228679181,"12":-0.25311021743317885,"13":-0.0009458086424144593,"14":-0.7890610335542052,"15":-0.8235182394604639}}},{"out_depth":16,"out_sx":16,"out_sy":16,"layer_type":"relu"},{"sx":2,"sy":2,"stride":2,"in_depth":16,"out_depth":16,"out_sx":8,"out_sy":8,"layer_type":"pool","pad":0},{"sx":5,"sy":5,"stride":1,"in_depth":16,"out_depth":32,"out_sx":8,"out_sy":8,"layer_type":"conv","l1_decay_mul":0,"l2_decay_mul":1,"pad":2,"filters":[{"sx":5,"sy":5,"depth":16,"w":{"0":-2.465e-321,"1":2.465e-321,"2":-2.465e-321,"3":2.465e-321,"4":-2.465e-321,"5":-2.465e-321,"6":-2.465e-321,"7":-2.465e-321,"8":-2.465e-321,"9":-2.465e-321,"10":-2.465e-321,"11":-2.465e-321,"12":-2.465e-321,"13":-2.465e-321,"14":-2.465e-321,"15":2.465e-321,"16":-2.465e-321,"17":2.465e-321,"18":-2.465e-321,"19":-2.465e-321,"20":-2.465e-321,"21":-2.465e-321,"22":-2.465e-321,"23":-2.465e-321,"24":-2.465e-321,"25":-2.465e-321,"26":-2.465e-321,"27":-2.465e-321,"28":-2.465e-321,"29":-2.465e-321,"30":-2.465e-321,"31":2.465e-321,"32":-2.465e-321,"33":2.465e-321,"34":-2.465e-321,"35":-2.465e-321,"36":-2.465e-321,"37":-2.465e-321,"38":-2.465e-321,"39":-2.465e-321,"40":2.465e-321,"41":-2.465e-321,"42":-2.465e-321,"43":-2.465e-321,"44":-2.465e-321,"45":-2.465e-321,"46":-2.465e-321,"47":-2.465e-321,"48":-2.465e-321,"49":2.465e-321,"50":-2.465e-321,"51":-2.465e-321,"52":-2.465e-321,"53":-2.465e-321,"54":-2.465e-321,"55":-2.465e-321,"56":-2.465e-321,"57":2.465e-321,"58":-2.465e-321,"59":-2.465e-321,"60":-2.465e-321,"61":-2.465e-321,"62":2.465e-321,"63":-2.465e-321,"64":-2.465e-321,"65":2.465e-321,"66":-2.465e-321,"67":2.465e-321,"68":-2.465e-321,"69":-2.465e-321,"70":-2.465e-321,"71":-2.465e-321,"72":-2.465e-321,"73":-2.465e-321,"74":-2.465e-321,"75":-2.465e-321,"76":-2.465e-321,"77":2.465e-321,"78":-2.465e-321,"79":-2.465e-321,"80":2.465e-321,"81":-2.465e-321,"82":-2.465e-321,"83":2.465e-321,"84":-2.465e-321,"85":-2.465e-321,"86":2.465e-321,"87":2.465e-321,"88":2.465e-321,"89":-2.465e-321,"90":-2.465e-321,"91":2.465e-321,"92":2.465e-321,"93":-2.465e-321,"94":2.465e-321,"95":-2.465e-321,"96":-2.465e-321,"97":2.465e-321,"98":-2.465e-321,"99":-2.465e-321,"100":-2.465e-321,"101":-2.465e-321,"102":-2.465e-321,"103":-2.465e-321,"104":-2.465e-321,"105":-2.465e-321,"106":-2.465e-321,"107":-2.465e-321,"108":2.465e-321,"109":-2.465e-321,"110":-2.465e-321,"111":-2.465e-321,"112":-2.465e-321,"113":-2.465e-321,"114":-2.465e-321,"115":-2.465e-321,"116":-2.465e-321,"117":-2.465e-321,"118":-2.465e-321,"119":-2.465e-321,"120":-2.465e-321,"121":-2.465e-321,"122":-2.465e-321,"123":-2.465e-321,"124":-2.465e-321,"125":-2.465e-321,"126":-2.465e-321,"127":-2.465e-321,"128":-2.465e-321,"129":-2.465e-321,"130":-2.465e-321,"131":-2.465e-321,"132":-2.465e-321,"133":-2.465e-321,"134":-2.465e-321,"135":-2.465e-321,"136":-2.465e-321,"137":2.465e-321,"138":-2.465e-321,"139":2.465e-321,"140":-2.465e-321,"141":2.465e-321,"142":2.465e-321,"143":-2.465e-321,"144":-2.465e-321,"145":2.465e-321,"146":-2.465e-321,"147":-2.465e-321,"148":-2.465e-321,"149":-2.465e-321,"150":-2.465e-321,"151":-2.465e-321,"152":-2.465e-321,"153":-2.465e-321,"154":-2.465e-321,"155":-2.465e-321,"156":-2.465e-321,"157":2.465e-321,"158":-2.465e-321,"159":-2.465e-321,"160":2.465e-321,"161":-2.465e-321,"162":-2.465e-321,"163":2.465e-321,"164":-2.465e-321,"165":-2.465e-321,"166":-2.465e-321,"167":-2.465e-321,"168":2.465e-321,"169":-2.465e-321,"170":-2.465e-321,"171":-2.465e-321,"172":-2.465e-321,"173":-2.465e-321,"174":-2.465e-321,"175":2.465e-321,"176":-2.465e-321,"177":2.465e-321,"178":-2.465e-321,"179":-2.465e-321,"180":-2.465e-321,"181":-2.465e-321,"182":-2.465e-321,"183":-2.465e-321,"184":-2.465e-321,"185":-2.465e-321,"186":-2.465e-321,"187":-2.465e-321,"188":-2.465e-321,"189":-2.465e-321,"190":-2.465e-321,"191":2.465e-321,"192":-2.465e-321,"193":-2.465e-321,"194":-2.465e-321,"195":-2.465e-321,"196":-2.465e-321,"197":-2.465e-321,"198":-2.465e-321,"199":-2.465e-321,"200":-2.465e-321,"201":-2.465e-321,"202":-2.465e-321,"203":-2.465e-321,"204":-2.465e-321,"205":-2.465e-321,"206":-2.465e-321,"207":2.465e-321,"208":-2.465e-321,"209":-2.465e-321,"210":-2.465e-321,"211":-2.465e-321,"212":-2.465e-321,"213":-2.465e-321,"214":-2.465e-321,"215":-2.465e-321,"216":2.465e-321,"217":2.465e-321,"218":-2.465e-321,"219":2.465e-321,"220":-2.465e-321,"221":-2.465e-321,"222":2.465e-321,"223":2.465e-321,"224":2.465e-321,"225":2.465e-321,"226":-2.465e-321,"227":-2.465e-321,"228":-2.465e-321,"229":-2.465e-321,"230":-2.465e-321,"231":-2.465e-321,"232":-2.465e-321,"233":-2.465e-321,"234":-2.465e-321,"235":-2.465e-321,"236":-2.465e-321,"237":2.465e-321,"238":2.465e-321,"239":-2.465e-321,"240":-2.465e-321,"241":-2.465e-321,"242":-2.465e-321,"243":2.465e-321,"244":-2.465e-321,"245":-2.465e-321,"246":-2.465e-321,"247":-2.465e-321,"248":2.465e-321,"249":-2.465e-321,"250":-2.465e-321,"251":-2.465e-321,"252":-2.465e-321,"253":-2.465e-321,"254":-2.465e-321,"255":2.465e-321,"256":-2.465e-321,"257":2.465e-321,"258":-2.465e-321,"259":-2.465e-321,"260":-2.465e-321,"261":-2.465e-321,"262":-2.465e-321,"263":-2.465e-321,"264":2.465e-321,"265":-2.465e-321,"266":-2.465e-321,"267":-2.465e-321,"268":-2.465e-321,"269":-2.465e-321,"270":-2.465e-321,"271":2.465e-321,"272":-2.465e-321,"273":-2.465e-321,"274":-2.465e-321,"275":-2.465e-321,"276":-2.465e-321,"277":-2.465e-321,"278":-2.465e-321,"279":-2.465e-321,"280":-2.465e-321,"281":-2.465e-321,"282":-2.465e-321,"283":-2.465e-321,"284":-2.465e-321,"285":-2.465e-321,"286":-2.465e-321,"287":-2.465e-321,"288":-2.465e-321,"289":-2.465e-321,"290":-2.465e-321,"291":-2.465e-321,"292":-2.465e-321,"293":-2.465e-321,"294":-2.465e-321,"295":-2.465e-321,"296":-2.465e-321,"297":-2.465e-321,"298":-2.465e-321,"299":-2.465e-321,"300":-2.465e-321,"301":2.465e-321,"302":2.465e-321,"303":-2.465e-321,"304":-2.465e-321,"305":-2.465e-321,"306":-2.465e-321,"307":-2.465e-321,"308":-2.465e-321,"309":-2.465e-321,"310":2.465e-321,"311":-2.465e-321,"312":-2.465e-321,"313":-2.465e-321,"314":2.465e-321,"315":-2.465e-321,"316":-2.465e-321,"317":2.465e-321,"318":-2.465e-321,"319":-2.465e-321,"320":-2.465e-321,"321":-2.465e-321,"322":-2.465e-321,"323":2.465e-321,"324":-2.465e-321,"325":-2.465e-321,"326":-2.465e-321,"327":2.465e-321,"328":-2.465e-321,"329":-2.465e-321,"330":-2.465e-321,"331":2.465e-321,"332":-2.465e-321,"333":-2.465e-321,"334":-2.465e-321,"335":2.465e-321,"336":-2.465e-321,"337":-2.465e-321,"338":-2.465e-321,"339":-2.465e-321,"340":-2.465e-321,"341":-2.465e-321,"342":-2.465e-321,"343":-2.465e-321,"344":-2.465e-321,"345":-2.465e-321,"346":2.465e-321,"347":-2.465e-321,"348":-2.465e-321,"349":-2.465e-321,"350":-2.465e-321,"351":2.465e-321,"352":-2.465e-321,"353":-2.465e-321,"354":-2.465e-321,"355":-2.465e-321,"356":-2.465e-321,"357":-2.465e-321,"358":-2.465e-321,"359":-2.465e-321,"360":-2.465e-321,"361":-2.465e-321,"362":-2.465e-321,"363":2.465e-321,"364":-2.465e-321,"365":-2.465e-321,"366":-2.465e-321,"367":-2.465e-321,"368":2.465e-321,"369":-2.465e-321,"370":-2.465e-321,"371":-2.465e-321,"372":-2.465e-321,"373":-2.465e-321,"374":-2.465e-321,"375":-2.465e-321,"376":-2.465e-321,"377":-2.465e-321,"378":-2.465e-321,"379":-2.465e-321,"380":2.465e-321,"381":2.465e-321,"382":2.465e-321,"383":-2.465e-321,"384":-2.465e-321,"385":2.465e-321,"386":-2.465e-321,"387":-2.465e-321,"388":-2.465e-321,"389":-2.465e-321,"390":-2.465e-321,"391":-2.465e-321,"392":-2.465e-321,"393":-2.465e-321,"394":-2.465e-321,"395":2.465e-321,"396":2.465e-321,"397":2.465e-321,"398":-2.465e-321,"399":2.465e-321}},{"sx":5,"sy":5,"depth":16,"w":{"0":-1.619354513099354e-309,"1":1.0725415091363834e-307,"2":-1.6178573596290313e-295,"3":8.6281895e-317,"4":1.6754e-320,"5":-2.0088591389348711e-296,"6":-1.7076619785226242e-293,"7":3.0462865084437844e-294,"8":-2.186804572545961e-295,"9":1.46221811492377e-310,"10":-8.214488e-317,"11":1.0434835771648836e-291,"12":-1.0022326534686016e-291,"13":1.1916372548730575e-298,"14":-2.027101959031758e-293,"15":-1.3721876434550528e-292,"16":-6.8287306541202e-310,"17":-1.763765447167183e-308,"18":-4.388841768282972e-295,"19":-7.2437533e-317,"20":1.031e-320,"21":3.136496417908808e-296,"22":-1.6912103745958404e-293,